{"learner":{"attributes":{"best_iteration":"165","best_score":"0.2980498500654169","scikit_learn":"{\"_estimator_type\": \"classifier\"}"},"feature_names":[],"feature_types":[],"gradient_booster":{"model":{"cats":{"enc":[],"feature_segments":[],"sorted_idx":[]},"gbtree_model_param":{"num_parallel_tree":"1","num_trees":"226"},"iteration_indptr":[0,1,2,3,4,5,6,7,8,9,10,11,12,13,14,15,16,17,18,19,20,21,22,23,24,25,26,27,28,29,30,31,32,33,34,35,36,37,38,39,40,41,42,43,44,45,46,47,48,49,50,51,52,53,54,55,56,57,58,59,60,61,62,63,64,65,66,67,68,69,70,71,72,73,74,75,76,77,78,79,80,81,82,83,84,85,86,87,88,89,90,91,92,93,94,95,96,97,98,99,100,101,102,103,104,105,106,107,108,109,110,111,112,113,114,115,116,117,118,119,120,121,122,123,124,125,126,127,128,129,130,131,132,133,134,135,136,137,138,139,140,141,142,143,144,145,146,147,148,149,150,151,152,153,154,155,156,157,158,159,160,161,162,163,164,165,166,167,168,169,170,171,172,173,174,175,176,177,178,179,180,181,182,183,184,185,186,187,188,189,190,191,192,193,194,195,196,197,198,199,200,201,202,203,204,205,206,207,208,209,210,211,212,213,214,215,216,217,218,219,220,221,222,223,224,225,226],"tree_info":[0,0,0,0,0,0,0,0,0,0,0,0,0,0,0,0,0,0,0,0,0,0,0,0,0,0,0,0,0,0,0,0,0,0,0,0,0,0,0,0,0,0,0,0,0,0,0,0,0,0,0,0,0,0,0,0,0,0,0,0,0,0,0,0,0,0,0,0,0,0,0,0,0,0,0,0,0,0,0,0,0,0,0,0,0,0,0,0,0,0,0,0,0,0,0,0,0,0,0,0,0,0,0,0,0,0,0,0,0,0,0,0,0,0,0,0,0,0,0,0,0,0,0,0,0,0,0,0,0,0,0,0,0,0,0,0,0,0,0,0,0,0,0,0,0,0,0,0,0,0,0,0,0,0,0,0,0,0,0,0,0,0,0,0,0,0,0,0,0,0,0,0,0,0,0,0,0,0,0,0,0,0,0,0,0,0,0,0,0,0,0,0,0,0,0,0,0,0,0,0,0,0,0,0,0,0,0,0,0,0,0,0,0,0,0,0,0,0,0,0,0,0,0,0,0,0],"trees":[{"base_weights":[-3.726708E-2,7.8721516E-2,-1.6334013E0,-6.8988764E-1,3.5327178E-1,-1.6857749E0,-1.6666668E-2,-4.933018E-1,-1.1689321E0,7.840467E-1,5.0511945E-2,-3.5714287E-2,-8.6577184E-2,3.2662192E-1,-9.346247E-1,-1.3865814E0,-8.15534E-1,8.9608175E-1,1.1371238E-1,1.0502284E0,-3.0202579E-2,7.9545456E-1,2.1818181E-2,-5.5657494E-1,-1.1729622E0,-1.4705882E0,-7.5555557E-1,-9.010989E-1,-7.1428576E-3,1.4262948E0,8.058124E-1,-7.7220076E-3,4.0909093E-2,7.234042E-1,1.1136364E0,-5.081081E-1,1.4855988E-1,-2.0000001E-2,4.8387095E-2,-4.888889E-3,2.5925925E-2,-3.8709678E-2,6.0240966E-3,-6.1220046E-2,-2.9166667E-2,-7.748918E-2,-4.6666667E-2,-2.0000001E-2,-5E-2,-5.328467E-2,-1.8367348E-2,5.277778E-2,7.704918E-2,3.2118887E-2,5.7894737E-2,1.1538462E-2,-1.775701E-2,4.6153847E-2,2.0000001E-2,5.9420288E-2,3.809524E-2,-2.9538462E-2,4.255319E-3,9.418425E-3,-8.9999996E-2],"categories":[],"categories_nodes":[],"categories_segments":[],"categories_sizes":[],"default_left":[0,0,0,0,0,0,0,0,0,0,0,0,0,0,0,0,0,0,0,0,0,0,0,0,0,0,0,0,0,0,0,0,0,0,0,0,0,0,0,0,0,0,0,0,0,0,0,0,0,0,0,0,0,0,0,0,0,0,0,0,0,0,0,0,0],"id":0,"left_children":[1,3,5,7,9,11,-1,13,15,17,19,-1,-1,21,23,25,27,29,31,33,35,37,39,41,43,45,47,49,-1,51,53,55,-1,57,59,61,63,-1,-1,-1,-1,-1,-1,-1,-1,-1,-1,-1,-1,-1,-1,-1,-1,-1,-1,-1,-1,-1,-1,-1,-1,-1,-1,-1,-1],"loss_changes":[3.354514E2,3.567651E2,7.7960205E0,4.1330505E1,1.6240018E2,3.9988098E0,0E0,1.1510254E2,8.772247E0,3.85E1,5.9138336E1,0E0,0E0,1.5951938E1,1.7953522E1,3.0369568E0,2.8354836E0,1.9921906E1,6.4009423E0,3.2899094E-1,5.806216E1,9.449411E0,4.1346803E0,1.2138334E1,3.0997162E0,1.4468079E0,5.7777786E-1,3.6058197E0,0E0,1.0415115E0,2.1036026E1,5.446894E0,0E0,3.895254E-1,2.5169373E-1,9.121895E0,3.8716568E1,0E0,0E0,0E0,0E0,0E0,0E0,0E0,0E0,0E0,0E0,0E0,0E0,0E0,0E0,0E0,0E0,0E0,0E0,0E0,0E0,0E0,0E0,0E0,0E0,0E0,0E0,0E0,0E0],"parents":[2147483647,0,0,1,1,2,2,3,3,4,4,5,5,7,7,8,8,9,9,10,10,13,13,14,14,15,15,16,16,17,17,18,18,19,19,20,20,21,21,22,22,23,23,24,24,25,25,26,26,27,27,29,29,30,30,31,31,33,33,34,34,35,35,36,36],"right_children":[2,4,6,8,10,12,-1,14,16,18,20,-1,-1,22,24,26,28,30,32,34,36,38,40,42,44,46,48,50,-1,52,54,56,-1,58,60,62,64,-1,-1,-1,-1,-1,-1,-1,-1,-1,-1,-1,-1,-1,-1,-1,-1,-1,-1,-1,-1,-1,-1,-1,-1,-1,-1,-1,-1],"split_conditions":[1E0,1E0,1E0,1E0,1E0,1E0,-1.6666668E-2,1E0,1E0,1E0,1E0,-3.5714287E-2,-8.6577184E-2,1E0,1E0,1E0,1E0,1E0,1E0,1E0,1E0,1E0,1E0,1E0,1E0,1E0,1E0,1E0,-7.1428576E-3,1E0,1E0,1E0,4.0909093E-2,1E0,1E0,1E0,1E0,-2.0000001E-2,4.8387095E-2,-4.888889E-3,2.5925925E-2,-3.8709678E-2,6.0240966E-3,-6.1220046E-2,-2.9166667E-2,-7.748918E-2,-4.6666667E-2,-2.0000001E-2,-5E-2,-5.328467E-2,-1.8367348E-2,5.277778E-2,7.704918E-2,3.2118887E-2,5.7894737E-2,1.1538462E-2,-1.775701E-2,4.6153847E-2,2.0000001E-2,5.9420288E-2,3.809524E-2,-2.9538462E-2,4.255319E-3,9.418425E-3,-8.9999996E-2],"split_indices":[2,22,55,23,37,63,0,21,37,0,17,0,0,37,37,60,60,17,39,91,51,51,9,70,9,69,10,89,0,85,9,81,0,87,57,10,35,0,0,0,0,0,0,0,0,0,0,0,0,0,0,0,0,0,0,0,0,0,0,0,0,0,0,0,0],"split_type":[0,0,0,0,0,0,0,0,0,0,0,0,0,0,0,0,0,0,0,0,0,0,0,0,0,0,0,0,0,0,0,0,0,0,0,0,0,0,0,0,0,0,0,0,0,0,0,0,0,0,0,0,0,0,0,0,0,0,0,0,0,0,0,0,0],"sum_hessian":[1.81025E3,1.6885E3,1.2175E2,4.44E2,1.2445E3,1.1675E2,5E0,3.1625E2,1.2775E2,5.13E2,7.315E2,6E0,1.1075E2,1.1075E2,2.055E2,7.725E1,5.05E1,4.3925E2,7.375E1,5.375E1,6.7775E2,4.3E1,6.775E1,8.075E1,1.2475E2,6.7E1,1.025E1,4.45E1,6E0,6.175E1,3.775E2,6.375E1,1E1,1.075E1,4.3E1,1.84E2,4.9375E2,5.25E0,3.775E1,5.525E1,1.25E1,6.1E1,1.975E1,1.1375E2,1.1E1,5.675E1,1.025E1,5.25E0,5E0,3.325E1,1.125E1,1.7E1,4.475E1,2.5975E2,1.1775E2,3.8E1,2.575E1,5.5E0,5.25E0,3.35E1,9.5E0,1.615E2,2.25E1,4.8475E2,9E0],"tree_param":{"num_deleted":"0","num_feature":"94","num_nodes":"65","size_leaf_vector":"1"}},{"base_weights":[-4.015497E-3,1.0337587E-1,-1.5101618E0,-6.5719324E-1,3.672217E-1,-3.1855952E-2,-7.744591E-2,-8.92289E-1,3.6556235E-1,7.47223E-1,1.0052354E-1,-9.929185E-1,3.3446014E-1,5.370835E-1,-6.652695E-1,7.959973E-1,-8.253621E-2,-3.5611275E-1,2.6807845E-1,-4.8938802E-1,-1.0446179E0,5.1439274E-2,-1.8003036E-1,9.7536653E-1,2.1273996E-1,-1.5691778E-2,-4.5716096E-2,9.0681046E-1,1.5477346E-1,-4.547716E-1,2.9200292E-1,3.0637336E-1,-8.582822E-2,-9.332936E-3,-5.2515645E-2,-5.389083E-2,-2.7584275E-2,-3.579484E-2,6.6841464E-3,3.600498E-2,6.270986E-2,2.7095664E-3,4.6214383E-2,7.415392E-2,4.0316418E-2,1.875321E-4,3.6134195E-2,3.3389475E-2,-2.5255239E-2,-1.0325506E-2,3.51553E-2,1.7050898E-2,-8.0497526E-2],"categories":[],"categories_nodes":[],"categories_segments":[],"categories_sizes":[],"default_left":[0,0,0,0,0,0,0,0,0,0,0,0,0,0,0,0,0,0,0,0,0,0,0,0,0,0,0,0,0,0,0,0,0,0,0,0,0,0,0,0,0,0,0,0,0,0,0,0,0,0,0,0,0],"id":1,"left_children":[1,3,5,7,9,-1,-1,11,13,15,17,19,21,23,25,27,-1,29,31,33,35,-1,37,39,41,-1,-1,43,45,47,49,51,-1,-1,-1,-1,-1,-1,-1,-1,-1,-1,-1,-1,-1,-1,-1,-1,-1,-1,-1,-1,-1],"loss_changes":[2.8870187E2,3.345897E2,3.0327454E0,1.0359375E2,1.2535542E2,0E0,0E0,4.3477234E1,1.4675537E1,6.0991882E1,5.5826595E1,7.903961E0,9.917453E0,9.740755E0,7.6327324E-1,3.5441223E1,0E0,1.26628E1,4.1068493E1,5.2346296E0,4.1884155E0,0E0,2.869436E0,1.1954346E0,4.631484E0,0E0,0E0,2.3515625E1,6.4291773E0,9.968655E0,5.5756273E0,3.535033E1,0E0,0E0,0E0,0E0,0E0,0E0,0E0,0E0,0E0,0E0,0E0,0E0,0E0,0E0,0E0,0E0,0E0,0E0,0E0,0E0,0E0],"parents":[2147483647,0,0,1,1,2,2,3,3,4,4,7,7,8,8,9,9,10,10,11,11,12,12,13,13,14,14,15,15,17,17,18,18,19,19,20,20,22,22,23,23,24,24,27,27,28,28,29,29,30,30,31,31],"right_children":[2,4,6,8,10,-1,-1,12,14,16,18,20,22,24,26,28,-1,30,32,34,36,-1,38,40,42,-1,-1,44,46,48,50,52,-1,-1,-1,-1,-1,-1,-1,-1,-1,-1,-1,-1,-1,-1,-1,-1,-1,-1,-1,-1,-1],"split_conditions":[1E0,1E0,1E0,1E0,1E0,-3.1855952E-2,-7.744591E-2,1E0,1E0,1E0,1E0,1E0,1E0,1E0,1E0,1E0,-8.253621E-2,1E0,1E0,1E0,1E0,5.1439274E-2,1E0,1E0,1E0,-1.5691778E-2,-4.5716096E-2,1E0,1E0,1E0,1E0,1E0,-8.582822E-2,-9.332936E-3,-5.2515645E-2,-5.389083E-2,-2.7584275E-2,-3.579484E-2,6.6841464E-3,3.600498E-2,6.270986E-2,2.7095664E-3,4.6214383E-2,7.415392E-2,4.0316418E-2,1.875321E-4,3.6134195E-2,3.3389475E-2,-2.5255239E-2,-1.0325506E-2,3.51553E-2,1.7050898E-2,-8.0497526E-2],"split_indices":[2,22,63,24,37,0,0,25,0,3,51,28,37,37,45,0,0,10,3,73,9,0,44,10,57,0,0,17,86,17,81,35,0,0,0,0,0,0,0,0,0,0,0,0,0,0,0,0,0,0,0,0,0],"split_type":[0,0,0,0,0,0,0,0,0,0,0,0,0,0,0,0,0,0,0,0,0,0,0,0,0,0,0,0,0,0,0,0,0,0,0,0,0,0,0,0,0,0,0,0,0,0,0,0,0,0,0,0,0],"sum_hessian":[1.7829315E3,1.6651354E3,1.1779625E2,4.2848428E2,1.236651E3,5.748229E0,1.1204802E2,3.4850314E2,7.998113E1,5.092505E2,7.274006E2,3.2225903E2,2.6244102E1,6.898211E1,1.09990225E1,4.9975357E2,9.496938E0,1.9495784E2,5.324427E2,3.098122E1,2.912778E2,1.0744438E1,1.5499664E1,2.8484295E1,4.0497814E1,5.4992433E0,5.4997787E0,4.2576138E2,7.3992195E1,1.6946022E2,2.549762E1,5.23193E2,9.24971E0,2.0987244E1,9.993977E0,2.7178662E2,1.9491188E1,5.2499685E0,1.0249696E1,1.6740807E1,1.1743489E1,3.399838E1,6.4994345E0,6.117295E1,3.645884E2,5.9244164E1,1.4748031E1,6.745716E0,1.6271451E2,1.1748631E1,1.374899E1,5.147098E2,8.483226E0],"tree_param":{"num_deleted":"0","num_feature":"94","num_nodes":"53","size_leaf_vector":"1"}},{"base_weights":[1.0377687E-2,-6.020161E-1,2.1141882E-1,-8.409652E-1,3.6866122E-1,6.627099E-1,-8.2205966E-2,-9.271088E-1,2.4785908E-1,-3.972842E-2,5.0047183E-1,7.17152E-1,-8.212521E-2,1.0918906E0,-1.6243544E-1,-9.8483175E-1,-4.2468476E-1,4.2588186E-2,-1.65634E-1,7.8490543E-1,2.7830505E-1,6.746154E-2,6.188136E-1,1.2328196E0,2.363784E-2,-7.422268E-1,-2.2336867E-2,-1.0011251E0,-4.8133354E-3,1.3309161E-2,-6.458584E-1,1.4597735E-2,-2.2088757E-2,8.0293946E-2,5.859686E-1,-3.1796426E-2,6.6353375E-1,4.5499197E-1,1.105359E0,1.3610231E0,3.5477486E-2,-1.4859117E0,-3.5409102E-1,-1.3366672E-1,4.7193745E-1,-4.7044866E-2,-6.115951E-2,-2.4886437E-2,-4.746091E-2,9.710152E-4,3.924341E-2,1.1411459E-2,-2.311628E-2,1.0028779E-2,4.343682E-2,-1.5360919E-3,2.7613198E-2,5.803556E-2,6.1277016E-3,8.745721E-2,4.6743847E-2,-7.973561E-2,-2.8270522E-2,-2.1812735E-2,-1.3099139E-3,-4.8636664E-3,-8.3917476E-2,1.016183E-2,3.3787567E-2],"categories":[],"categories_nodes":[],"categories_segments":[],"categories_sizes":[],"default_left":[0,0,0,0,0,0,0,0,0,0,0,0,0,0,0,0,0,0,0,0,0,0,0,0,0,0,0,0,0,0,0,0,0,0,0,0,0,0,0,0,0,0,0,0,0,0,0,0,0,0,0,0,0,0,0,0,0,0,0,0,0,0,0,0,0,0,0,0,0],"id":2,"left_children":[1,3,5,7,9,11,13,15,17,-1,19,21,-1,23,25,27,29,-1,31,33,35,-1,37,39,-1,41,43,45,-1,-1,47,-1,-1,-1,49,51,53,55,57,59,-1,61,63,65,67,-1,-1,-1,-1,-1,-1,-1,-1,-1,-1,-1,-1,-1,-1,-1,-1,-1,-1,-1,-1,-1,-1,-1,-1],"loss_changes":[2.2363643E2,1.0443948E2,1.812603E2,3.4049088E1,1.4101889E1,6.88396E1,7.829985E1,9.278107E0,6.9392357E0,0E0,4.8935165E0,3.1946503E1,0E0,4.057049E0,6.3111687E1,4.234314E0,5.7051578E0,0E0,2.2766848E0,4.7633724E0,5.632002E0,0E0,3.6021393E1,1.898468E0,0E0,4.3122383E1,3.4563034E1,2.7763672E0,0E0,0E0,7.732887E-1,0E0,0E0,0E0,3.3303032E0,3.125453E0,1.8200731E0,1.6293755E1,6.0988617E0,3.8565407E0,0E0,4.2604675E0,2.7007656E0,2.8646578E1,6.186716E0,0E0,0E0,0E0,0E0,0E0,0E0,0E0,0E0,0E0,0E0,0E0,0E0,0E0,0E0,0E0,0E0,0E0,0E0,0E0,0E0,0E0,0E0,0E0,0E0],"parents":[2147483647,0,0,1,1,2,2,3,3,4,4,5,5,6,6,7,7,8,8,10,10,11,11,13,13,14,14,15,15,16,16,18,18,19,19,20,20,22,22,23,23,25,25,26,26,27,27,30,30,34,34,35,35,36,36,37,37,38,38,39,39,41,41,42,42,43,43,44,44],"right_children":[2,4,6,8,10,12,14,16,18,-1,20,22,-1,24,26,28,30,-1,32,34,36,-1,38,40,-1,42,44,46,-1,-1,48,-1,-1,-1,50,52,54,56,58,60,-1,62,64,66,68,-1,-1,-1,-1,-1,-1,-1,-1,-1,-1,-1,-1,-1,-1,-1,-1,-1,-1,-1,-1,-1,-1,-1,-1],"split_conditions":[1E0,1E0,1E0,1E0,1E0,1E0,1E0,1E0,1E0,-3.972842E-2,1E0,1E0,-8.212521E-2,1E0,1E0,1E0,1E0,4.2588186E-2,1E0,1E0,1E0,6.746154E-2,1E0,1E0,2.363784E-2,1E0,1E0,1E0,-4.8133354E-3,1.3309161E-2,1E0,1.4597735E-2,-2.2088757E-2,8.0293946E-2,1E0,1E0,1E0,1E0,1E0,1E0,3.5477486E-2,1E0,1E0,1E0,1E0,-4.7044866E-2,-6.115951E-2,-2.4886437E-2,-4.746091E-2,9.710152E-4,3.924341E-2,1.1411459E-2,-2.311628E-2,1.0028779E-2,4.343682E-2,-1.5360919E-3,2.7613198E-2,5.803556E-2,6.1277016E-3,8.745721E-2,4.6743847E-2,-7.973561E-2,-2.8270522E-2,-2.1812735E-2,-1.3099139E-3,-4.8636664E-3,-8.3917476E-2,1.016183E-2,3.3787567E-2],"split_indices":[22,24,37,25,34,3,17,9,37,0,37,17,0,61,34,26,63,0,50,17,86,0,9,57,0,32,9,61,0,0,57,0,0,0,44,73,91,34,65,90,0,33,57,3,90,0,0,0,0,0,0,0,0,0,0,0,0,0,0,0,0,0,0,0,0,0,0,0,0],"split_type":[0,0,0,0,0,0,0,0,0,0,0,0,0,0,0,0,0,0,0,0,0,0,0,0,0,0,0,0,0,0,0,0,0,0,0,0,0,0,0,0,0,0,0,0,0,0,0,0,0,0,0,0,0,0,0,0,0,0,0,0,0,0,0,0,0,0,0,0,0],"sum_hessian":[1.8144304E3,4.4794507E2,1.3664854E3,3.595654E2,8.8379654E1,5.381344E2,8.283509E2,3.3334125E2,2.622416E1,8.483613E0,7.989604E1,5.263916E2,1.1742849E1,5.2176632E1,7.7617426E2,2.9812936E2,3.5211895E1,1.0227306E1,1.5996853E1,3.3927155E1,4.5968887E1,6.915719E1,4.5723438E2,4.1694748E1,1.0481884E1,1.5021573E2,6.2595856E2,2.9263672E2,5.4926476E0,8.489671E0,2.6722225E1,5.998904E0,9.997948E0,5.238125E0,2.868903E1,2.59761E1,1.9992785E1,3.4350885E2,1.1372555E2,3.2203705E1,9.491042E0,5.0543625E1,9.9672104E1,5.1148233E2,1.1447621E2,2.3432176E2,5.831495E1,1.9729225E1,6.9930005E0,7.7399883E0,2.0949041E1,1.6487858E1,9.488243E0,6.747404E0,1.3245381E1,5.7429085E1,2.8607974E2,1.0749059E2,6.2349534E0,1.5229011E1,1.6974693E1,4.4545986E1,5.9976406E0,7.943638E1,2.0235723E1,5.007475E2,1.0734856E1,5.0239475E1,6.423673E1],"tree_param":{"num_deleted":"0","num_feature":"94","num_nodes":"69","size_leaf_vector":"1"}},{"base_weights":[-6.456E-4,1.0317021E-1,-7.407397E-2,-5.6328297E-1,3.378386E-1,-3.7120718E-1,-1.0442736E0,1.2414886E0,2.412824E-1,4.0422907E-1,-7.9917985E-1,-3.3920687E-1,-1.1142002E0,1.2784858E0,3.188375E-2,5.8482707E-1,1.7834747E-2,8.5789394E-1,8.803193E-2,-8.972296E-1,2.1920021E-1,3.0610312E-4,-3.362634E-2,-1.3151746E0,-7.524302E-1,7.262485E-2,1.0369152E0,6.402641E-1,-8.096046E-2,-5.7963115E-1,1.4850567E-1,4.91292E-2,-5.02669E-3,1.0286776E-2,-2.2435933E-2,-5.7301443E-2,-3.7034363E-2,-2.9621307E-2,3.9124954E-2,-7.03244E-2,-2.4739653E-2,-6.1534937E-2,-2.520381E-2,2.386805E-2,5.559298E-2,3.7717022E-2,2.2317034E-3,-6.0673077E-2,-1.942218E-2,9.223855E-3,-8.0183044E-2],"categories":[],"categories_nodes":[],"categories_segments":[],"categories_sizes":[],"default_left":[0,0,0,0,0,0,0,0,0,0,0,0,0,0,0,0,0,0,0,0,0,0,0,0,0,0,0,0,0,0,0,0,0,0,0,0,0,0,0,0,0,0,0,0,0,0,0,0,0,0,0],"id":3,"left_children":[1,3,-1,5,7,9,11,13,15,17,19,21,23,25,-1,27,29,31,33,35,37,-1,-1,39,41,-1,43,45,-1,47,49,-1,-1,-1,-1,-1,-1,-1,-1,-1,-1,-1,-1,-1,-1,-1,-1,-1,-1,-1,-1],"loss_changes":[2.7767368E2,2.6416583E2,0E0,4.0255768E1,1.0867461E2,1.0517096E2,5.784561E0,1.8727722E0,8.67038E1,1.6137085E1,2.0557846E1,1.4677461E0,7.246399E0,3.2180939E0,0E0,5.542659E1,5.3602062E1,5.632599E0,4.3704147E0,6.4032593E0,9.0186E0,0E0,0E0,4.659134E0,4.46245E0,0E0,1.5891876E0,2.9519165E1,0E0,1.446035E1,3.5796696E1,0E0,0E0,0E0,0E0,0E0,0E0,0E0,0E0,0E0,0E0,0E0,0E0,0E0,0E0,0E0,0E0,0E0,0E0,0E0,0E0],"parents":[2147483647,0,0,1,1,3,3,4,4,5,5,6,6,7,7,8,8,9,9,10,10,11,11,12,12,13,13,15,15,16,16,17,17,18,18,19,19,20,20,23,23,24,24,26,26,27,27,29,29,30,30],"right_children":[2,4,-1,6,8,10,12,14,16,18,20,22,24,26,-1,28,30,32,34,36,38,-1,-1,40,42,-1,44,46,-1,48,50,-1,-1,-1,-1,-1,-1,-1,-1,-1,-1,-1,-1,-1,-1,-1,-1,-1,-1,-1,-1],"split_conditions":[1E0,1E0,-7.407397E-2,1E0,1E0,1E0,1E0,1E0,1E0,1E0,1E0,1E0,1E0,1E0,3.188375E-2,1E0,1E0,1E0,1E0,1E0,1E0,3.0610312E-4,-3.362634E-2,1E0,1E0,7.262485E-2,1E0,1E0,-8.096046E-2,1E0,1E0,4.91292E-2,-5.02669E-3,1.0286776E-2,-2.2435933E-2,-5.7301443E-2,-3.7034363E-2,-2.9621307E-2,3.9124954E-2,-7.03244E-2,-2.4739653E-2,-6.1534937E-2,-2.520381E-2,2.386805E-2,5.559298E-2,3.7717022E-2,2.2317034E-3,-6.0673077E-2,-1.942218E-2,9.223855E-3,-8.0183044E-2],"split_indices":[2,22,0,23,17,21,28,1,37,37,39,1,37,37,0,3,34,0,0,51,0,0,0,38,44,0,34,0,0,32,3,0,0,0,0,0,0,0,0,0,0,0,0,0,0,0,0,0,0,0,0],"split_type":[0,0,0,0,0,0,0,0,0,0,0,0,0,0,0,0,0,0,0,0,0,0,0,0,0,0,0,0,0,0,0,0,0,0,0,0,0,0,0,0,0,0,0,0,0,0,0,0,0,0,0],"sum_hessian":[1.804202E3,1.686872E3,1.1733006E2,4.3892734E2,1.2479446E3,3.149349E2,1.2399241E2,1.1932723E2,1.1286174E3,1.1202117E2,2.0291374E2,1.1715596E1,1.1227681E2,1.1138504E2,7.942193E0,4.4414273E2,6.844747E2,4.5305626E1,6.6715546E1,1.8520148E2,1.7712267E1,6.2362733E0,5.4793234E0,7.048489E1,4.1791912E1,6.1832413E1,4.9552628E1,4.3393762E2,1.0205115E1,1.2221875E2,5.622559E2,4.0067677E1,5.2379494E0,5.522254E1,1.1493004E1,6.908344E1,1.16118034E2,7.235428E0,1.0476838E1,6.278241E1,7.7024875E0,1.2932224E1,2.8859688E1,6.723409E0,4.282922E1,3.6396402E2,6.997361E1,2.7083576E1,9.513518E1,5.518219E2,1.0434016E1],"tree_param":{"num_deleted":"0","num_feature":"94","num_nodes":"51","size_leaf_vector":"1"}},{"base_weights":[-3.1228916E-4,9.437674E-2,-1.370944E0,-5.6520516E-1,3.2751843E-1,-3.1081846E-2,-7.065399E-2,-7.814599E-1,3.154789E-1,6.7184466E-1,8.968344E-2,-8.573806E-1,1.6881199E-1,4.45858E-1,-4.469037E-1,7.173705E-1,-7.331585E-2,9.70274E-1,2.0379689E-2,-2.6823902E-1,-9.1307765E-1,4.2317595E-2,-2.765403E-1,8.4982437E-1,1.3779852E-1,-2.5851643E-3,-4.2488787E-2,8.237223E-1,1.12520866E-1,2.5337065E-2,1.0548967E0,-5.1188666E-1,1.3573848E-1,1.4667561E-4,-3.9296564E-2,-4.7393672E-2,-2.0341787E-2,-3.2915402E-2,1.1302788E-3,6.977295E-2,3.369692E-2,-1.1036271E-3,2.6429076E-2,4.2338904E-2,-4.2826146E-2,1.6315598E-2,-1.4172934E-2,5.665313E-2,2.5740234E-2,-6.694129E-2,-1.1984403E-2,8.589411E-3,-7.760317E-2],"categories":[],"categories_nodes":[],"categories_segments":[],"categories_sizes":[],"default_left":[0,0,0,0,0,0,0,0,0,0,0,0,0,0,0,0,0,0,0,0,0,0,0,0,0,0,0,0,0,0,0,0,0,0,0,0,0,0,0,0,0,0,0,0,0,0,0,0,0,0,0,0,0],"id":4,"left_children":[1,3,5,7,9,-1,-1,11,13,15,17,19,21,23,25,27,-1,29,31,33,35,-1,37,39,41,-1,-1,43,45,-1,47,49,51,-1,-1,-1,-1,-1,-1,-1,-1,-1,-1,-1,-1,-1,-1,-1,-1,-1,-1,-1,-1],"loss_changes":[2.328731E2,2.5827823E2,2.782364E0,8.379526E1,1.0154286E2,0E0,0E0,2.5575195E1,8.866503E0,5.03761E1,4.483423E1,1.0471176E1,8.355095E0,9.21172E0,2.0630603E0,3.1866135E1,0E0,1.5679817E0,4.1968075E1,4.1609716E0,4.862808E0,0E0,1.955569E0,2.1535492E0,2.743298E0,0E0,0E0,1.7087616E1,6.480008E0,0E0,1.2912216E0,2.7085648E1,3.4437836E1,0E0,0E0,0E0,0E0,0E0,0E0,0E0,0E0,0E0,0E0,0E0,0E0,0E0,0E0,0E0,0E0,0E0,0E0,0E0,0E0],"parents":[2147483647,0,0,1,1,2,2,3,3,4,4,7,7,8,8,9,9,10,10,11,11,12,12,13,13,14,14,15,15,17,17,18,18,19,19,20,20,22,22,23,23,24,24,27,27,28,28,30,30,31,31,32,32],"right_children":[2,4,6,8,10,-1,-1,12,14,16,18,20,22,24,26,28,-1,30,32,34,36,-1,38,40,42,-1,-1,44,46,-1,48,50,52,-1,-1,-1,-1,-1,-1,-1,-1,-1,-1,-1,-1,-1,-1,-1,-1,-1,-1,-1,-1],"split_conditions":[1E0,1E0,1E0,1E0,1E0,-3.1081846E-2,-7.065399E-2,1E0,1E0,1E0,1E0,1E0,1E0,1E0,1E0,1E0,-7.331585E-2,1E0,1E0,1E0,1E0,4.2317595E-2,1E0,1E0,1E0,-2.5851643E-3,-4.2488787E-2,1E0,1E0,2.5337065E-2,1E0,1E0,1E0,1.4667561E-4,-3.9296564E-2,-4.7393672E-2,-2.0341787E-2,-3.2915402E-2,1.1302788E-3,6.977295E-2,3.369692E-2,-1.1036271E-3,2.6429076E-2,4.2338904E-2,-4.2826146E-2,1.6315598E-2,-1.4172934E-2,5.665313E-2,2.5740234E-2,-6.694129E-2,-1.1984403E-2,8.589411E-3,-7.760317E-2],"split_indices":[2,22,63,24,37,0,0,25,0,3,17,28,37,37,45,0,0,34,34,73,9,0,87,17,9,0,0,8,71,0,69,32,3,0,0,0,0,0,0,0,0,0,0,0,0,0,0,0,0,0,0,0,0],"split_type":[0,0,0,0,0,0,0,0,0,0,0,0,0,0,0,0,0,0,0,0,0,0,0,0,0,0,0,0,0,0,0,0,0,0,0,0,0,0,0,0,0,0,0,0,0,0,0,0,0,0,0,0,0],"sum_hessian":[1.7923187E3,1.67737E3,1.1494866E2,4.3768625E2,1.2396838E3,6.9584436E0,1.0799022E2,3.5148953E2,8.61967E1,5.0571243E2,7.339714E2,3.2557584E2,2.5913694E1,7.396306E1,1.2233642E1,4.9581992E2,9.892529E0,5.2601643E1,6.813697E2,2.8623528E1,2.969523E2,9.920564E0,1.5993131E1,3.1239397E1,4.2723663E1,6.745211E0,5.4884305E0,4.2136816E2,7.445177E1,9.199318E0,4.3402325E1,1.20757286E2,5.606124E2,1.943671E1,9.186817E0,2.7703818E2,1.9914139E1,6.4987936E0,9.494337E0,5.924985E0,2.5314413E1,3.0989313E1,1.1734349E1,4.1615384E2,5.2143006E0,4.846256E1,2.5989208E1,3.6955902E1,6.446423E0,2.8934809E1,9.182248E1,5.497681E2,1.0844276E1],"tree_param":{"num_deleted":"0","num_feature":"94","num_nodes":"53","size_leaf_vector":"1"}},{"base_weights":[-3.5786354E-3,1.0734979E0,-9.175561E-2,1.1981484E0,8.756246E-1,-5.762292E-1,7.6457016E-2,9.178201E-1,6.867742E-2,3.2671706E-3,9.7655886E-1,-7.4906015E-1,1.9629094E-1,-5.919422E-2,6.684119E-1,5.163069E-1,6.6362165E-2,1.094318E0,7.407045E-1,-8.166423E-1,9.416463E-2,9.823087E-2,5.88237E-2,-2.8697726E-1,4.9265778E-1,4.4341534E-1,1.0487219E0,1.2840558E-3,7.4508435E-1,5.905732E-2,3.0087708E-2,2.3455758E-2,5.3151097E-2,-8.644692E-1,-4.4427794E-1,-2.2689493E-1,4.5757976E-1,-6.996082E-2,6.2521076E-1,-4.2632976E-1,2.3225728E-1,3.1796765E-1,9.0761924E-1,5.054189E-1,-2.071747E-2,1.1590786E0,5.857982E-1,1.680678E-2,5.4238886E-2,-4.408833E-2,-1.0737536E-3,-3.0991076E-2,3.5492356E-3,8.733341E-3,-2.515277E-2,5.041798E-2,-1.3839126E-2,-2.4821319E-2,2.5988823E-2,2.2465555E-2,3.7469465E-2,-2.6162578E-2,3.901876E-2,2.5611598E-2,-6.094293E-3,-1.8564304E-2,1.8910175E-2,4.1052468E-2,6.7870036E-2,3.5674607E-3,3.0815525E-2,6.1728287E-2,1.3281194E-2,3.8919874E-2,1.0265523E-2],"categories":[],"categories_nodes":[],"categories_segments":[],"categories_sizes":[],"default_left":[0,0,0,0,0,0,0,0,0,0,0,0,0,0,0,0,0,0,0,0,0,0,0,0,0,0,0,0,0,0,0,0,0,0,0,0,0,0,0,0,0,0,0,0,0,0,0,0,0,0,0,0,0,0,0,0,0,0,0,0,0,0,0,0,0,0,0,0,0,0,0,0,0,0,0],"id":5,"left_children":[1,3,5,7,9,11,13,15,-1,-1,17,19,21,23,25,27,-1,29,31,33,35,37,-1,39,41,43,45,-1,47,-1,-1,-1,-1,49,51,53,55,57,59,61,63,65,67,69,-1,71,73,-1,-1,-1,-1,-1,-1,-1,-1,-1,-1,-1,-1,-1,-1,-1,-1,-1,-1,-1,-1,-1,-1,-1,-1,-1,-1,-1,-1],"loss_changes":[1.6732582E2,2.239212E0,1.327548E2,2.6276016E0,4.4541016E0,5.6198105E1,9.7173836E1,4.813513E0,0E0,0E0,5.5176544E-1,1.9638641E1,7.3376036E0,1.23964455E2,1.8839447E1,2.0601578E0,0E0,5.988655E-1,1.2021208E0,5.2774353E0,3.1802857E0,6.3882995E0,0E0,5.059545E1,2.0600464E1,7.840172E0,3.567627E0,0E0,1.3854437E0,0E0,0E0,0E0,0E0,4.073532E0,3.5029573E0,1.7144699E0,5.4155884E0,1.4131546E1,4.3780804E-2,6.480052E1,1.4767982E1,8.623888E0,2.1886902E0,6.418373E0,0E0,4.1302795E0,1.1609802E0,0E0,0E0,0E0,0E0,0E0,0E0,0E0,0E0,0E0,0E0,0E0,0E0,0E0,0E0,0E0,0E0,0E0,0E0,0E0,0E0,0E0,0E0,0E0,0E0,0E0,0E0,0E0,0E0],"parents":[2147483647,0,0,1,1,2,2,3,3,4,4,5,5,6,6,7,7,10,10,11,11,12,12,13,13,14,14,15,15,17,17,18,18,19,19,20,20,21,21,23,23,24,24,25,25,26,26,28,28,33,33,34,34,35,35,36,36,37,37,38,38,39,39,40,40,41,41,42,42,43,43,45,45,46,46],"right_children":[2,4,6,8,10,12,14,16,-1,-1,18,20,22,24,26,28,-1,30,32,34,36,38,-1,40,42,44,46,-1,48,-1,-1,-1,-1,50,52,54,56,58,60,62,64,66,68,70,-1,72,74,-1,-1,-1,-1,-1,-1,-1,-1,-1,-1,-1,-1,-1,-1,-1,-1,-1,-1,-1,-1,-1,-1,-1,-1,-1,-1,-1,-1],"split_conditions":[1E0,1E0,1E0,1E0,1E0,1E0,1E0,1E0,6.867742E-2,3.2671706E-3,1E0,1E0,1E0,1E0,1E0,1E0,6.6362165E-2,1E0,1E0,1E0,1E0,1E0,5.88237E-2,1E0,1E0,1E0,1E0,1.2840558E-3,1E0,5.905732E-2,3.0087708E-2,2.3455758E-2,5.3151097E-2,1E0,1E0,1E0,1E0,1E0,1E0,1E0,1E0,1E0,1E0,1E0,-2.071747E-2,1E0,1E0,1.680678E-2,5.4238886E-2,-4.408833E-2,-1.0737536E-3,-3.0991076E-2,3.5492356E-3,8.733341E-3,-2.515277E-2,5.041798E-2,-1.3839126E-2,-2.4821319E-2,2.5988823E-2,2.2465555E-2,3.7469465E-2,-2.6162578E-2,3.901876E-2,2.5611598E-2,-6.094293E-3,-1.8564304E-2,1.8910175E-2,4.1052468E-2,6.7870036E-2,3.5674607E-3,3.0815525E-2,6.1728287E-2,1.3281194E-2,3.8919874E-2,1.0265523E-2],"split_indices":[17,50,22,10,91,24,9,9,0,0,18,25,7,10,41,18,0,71,41,69,89,9,0,1,41,75,86,0,49,0,0,0,0,64,0,63,86,10,29,7,50,34,46,91,0,80,81,0,0,0,0,0,0,0,0,0,0,0,0,0,0,0,0,0,0,0,0,0,0,0,0,0,0,0,0],"split_type":[0,0,0,0,0,0,0,0,0,0,0,0,0,0,0,0,0,0,0,0,0,0,0,0,0,0,0,0,0,0,0,0,0,0,0,0,0,0,0,0,0,0,0,0,0,0,0,0,0,0,0,0,0,0,0,0,0,0,0,0,0,0,0,0,0,0,0,0,0,0,0,0,0,0,0],"sum_hessian":[1.7597815E3,1.3232047E2,1.6274609E3,7.807922E1,5.424125E1,4.1880994E2,1.2086511E3,3.244984E1,4.5629387E1,6.190719E0,4.805053E1,3.4226712E2,7.654282E1,9.840484E2,2.2460263E2,1.7524733E1,1.4925106E1,2.962122E1,1.8429308E1,3.1689996E2,2.5367146E1,7.058185E1,5.9609756E0,6.9688245E2,2.87166E2,1.4247716E2,8.212547E1,5.9267497E0,1.1597983E1,2.3993694E1,5.6275253E0,1.1334304E1,7.0950046E0,2.7965872E2,3.724123E1,1.366789E1,1.1699256E1,5.4162502E1,1.6419344E1,5.4956793E2,1.4731448E2,2.0333319E2,8.383279E1,1.3325555E2,9.221612E0,6.510195E1,1.702352E1,6.165278E0,5.4327054E0,2.739907E2,5.6680336E0,2.7626352E1,9.614876E0,5.719194E0,7.9486957E0,6.472043E0,5.2272124E0,3.1524178E1,2.2638327E1,8.705796E0,7.7135468E0,5.0923306E2,4.0334885E1,8.2023125E1,6.529136E1,1.5926709E1,1.874065E2,7.2671135E1,1.1161651E1,2.744995E1,1.058056E2,5.9678024E1,5.42393E0,1.0608042E1,6.4154778E0],"tree_param":{"num_deleted":"0","num_feature":"94","num_nodes":"75","size_leaf_vector":"1"}},{"base_weights":[-6.847465E-3,8.838595E-2,-1.3576248E0,-5.100788E-1,2.95842E-1,-1.4014872E0,-1.6488701E-2,-3.528106E-1,-9.017651E-1,1.1180242E0,2.0878819E-1,-7.2474025E-2,-9.9277437E-1,-1.5560287E-1,-8.396159E-1,-7.8754747E-1,-6.870439E-2,1.1558511E0,2.395761E-2,2.4220893E-1,-7.732504E-2,-3.038614E-2,-5.9204407E-2,-4.4308856E-1,1.8982874E-2,-9.355308E-1,8.146459E-3,-5.7890135E-1,-1.0426245E0,1.1846744E0,3.1126434E-2,-3.0519372E-1,3.5397524E-1,-2.7901698E-2,1.4839026E-2,1.1483327E-2,-1.5698275E-2,-4.029331E-2,-5.871452E-2,-3.299191E-2,-3.688121E-3,-5.858137E-2,-3.0328372E-2,4.0141154E-2,6.1553944E-2,-1.0430163E-2,-7.65991E-2,1.12094525E-2,3.4600604E-2],"categories":[],"categories_nodes":[],"categories_segments":[],"categories_sizes":[],"default_left":[0,0,0,0,0,0,0,0,0,0,0,0,0,0,0,0,0,0,0,0,0,0,0,0,0,0,0,0,0,0,0,0,0,0,0,0,0,0,0,0,0,0,0,0,0,0,0,0,0],"id":6,"left_children":[1,3,5,7,9,11,-1,13,15,17,19,-1,21,23,25,27,-1,29,-1,31,-1,-1,-1,33,35,37,-1,39,41,43,-1,45,47,-1,-1,-1,-1,-1,-1,-1,-1,-1,-1,-1,-1,-1,-1,-1,-1],"loss_changes":[2.3087782E2,2.0831387E2,4.866852E0,2.6290398E1,8.892486E1,7.78656E-1,0E0,2.9615555E1,5.5592117E0,2.3228607E0,6.652548E1,0E0,3.893957E-1,1.1137999E1,8.720722E0,4.7971306E0,0E0,9.79187E-1,0E0,6.786232E1,0E0,0E0,0E0,7.2943573E0,9.817001E0,1.5759888E0,0E0,2.3253727E0,1.7875137E0,8.694E-1,0E0,2.1994413E1,4.0213135E1,0E0,0E0,0E0,0E0,0E0,0E0,0E0,0E0,0E0,0E0,0E0,0E0,0E0,0E0,0E0,0E0],"parents":[2147483647,0,0,1,1,2,2,3,3,4,4,5,5,7,7,8,8,9,9,10,10,12,12,13,13,14,14,15,15,17,17,19,19,23,23,24,24,25,25,27,27,28,28,29,29,31,31,32,32],"right_children":[2,4,6,8,10,12,-1,14,16,18,20,-1,22,24,26,28,-1,30,-1,32,-1,-1,-1,34,36,38,-1,40,42,44,-1,46,48,-1,-1,-1,-1,-1,-1,-1,-1,-1,-1,-1,-1,-1,-1,-1,-1],"split_conditions":[1E0,1E0,1E0,1E0,1E0,1E0,-1.6488701E-2,1E0,1E0,1E0,1E0,-7.2474025E-2,1E0,1E0,1E0,1E0,-6.870439E-2,1E0,2.395761E-2,1E0,-7.732504E-2,-3.038614E-2,-5.9204407E-2,1E0,1E0,1E0,8.146459E-3,1E0,1E0,1E0,3.1126434E-2,1E0,1E0,-2.7901698E-2,1.4839026E-2,1.1483327E-2,-1.5698275E-2,-4.029331E-2,-5.871452E-2,-3.299191E-2,-3.688121E-3,-5.858137E-2,-3.0328372E-2,4.0141154E-2,6.1553944E-2,-1.0430163E-2,-7.65991E-2,1.12094525E-2,3.4600604E-2],"split_indices":[2,22,55,23,17,76,0,53,39,1,3,0,50,85,10,41,0,55,0,34,0,0,0,39,50,86,0,60,59,34,0,35,41,0,0,0,0,0,0,0,0,0,0,0,0,0,0,0,0],"split_type":[0,0,0,0,0,0,0,0,0,0,0,0,0,0,0,0,0,0,0,0,0,0,0,0,0,0,0,0,0,0,0,0,0,0,0,0,0,0,0,0,0,0,0,0,0,0,0,0,0],"sum_hessian":[1.7928385E3,1.6756362E3,1.1720227E2,4.3095828E2,1.244678E3,1.1205685E2,5.1454253E0,3.0885065E2,1.2210763E2,1.1803643E2,1.1266415E3,9.8002426E1,1.40544195E1,2.2074513E2,8.810552E1,1.0047743E2,2.1630192E1,1.1067433E2,7.3621E0,1.1064369E3,2.0204578E1,6.0514407E0,8.002978E0,8.282367E1,1.3792146E2,8.0473366E1,7.6321554E0,5.7067383E1,4.3410053E1,1.0384095E2,6.833378E0,1.8731E2,9.1912695E2,7.189924E1,1.0924431E1,8.4660225E1,5.326124E1,5.4986652E1,2.5486712E1,4.892245E1,8.144933E0,3.21978E1,1.1212251E1,1.3234866E1,9.060609E1,1.747233E2,1.25866995E1,6.653392E2,2.5378775E2],"tree_param":{"num_deleted":"0","num_feature":"94","num_nodes":"49","size_leaf_vector":"1"}},{"base_weights":[-9.845388E-3,7.842306E-2,-1.305224E0,-5.062302E-1,2.8332174E-1,-1.3569002E0,-1.3739275E-2,-6.96466E-1,2.6967764E-1,-1.1620449E-1,4.1071355E-1,-1.4146101E0,-9.5681244E-1,-7.822676E-1,3.8031426E-1,4.031494E-1,-5.426305E-1,-2.06019E-1,3.5318434E-1,-7.9104257E-1,4.6013862E-1,-7.3349856E-2,-4.6891E-2,-6.1324906E-2,-1.9196467E-2,-8.414046E-1,-3.082696E-1,-1.3943346E-2,7.264696E-1,2.1696919E-1,8.547146E-1,-4.628266E-2,-5.5876104E-3,-2.7570868E-1,5.295978E-1,5.175455E-1,-2.4010288E-2,-1.0509028E0,1.4794647E-2,4.8189452E-1,-6.648228E-2,-4.311415E-2,1.2713902E-3,-2.9475564E-2,-8.102123E-4,6.1289508E-2,1.699924E-2,5.6274994E-3,5.00692E-2,2.2830795E-2,6.34666E-2,-2.4520427E-2,-4.5714937E-3,3.7734315E-2,7.341461E-3,3.8291395E-2,8.299077E-3,-6.894588E-2,-1.7255373E-2,2.2184575E-2,5.665971E-2],"categories":[],"categories_nodes":[],"categories_segments":[],"categories_sizes":[],"default_left":[0,0,0,0,0,0,0,0,0,0,0,0,0,0,0,0,0,0,0,0,0,0,0,0,0,0,0,0,0,0,0,0,0,0,0,0,0,0,0,0,0,0,0,0,0,0,0,0,0,0,0,0,0,0,0,0,0,0,0,0,0],"id":7,"left_children":[1,3,5,7,9,11,-1,13,15,17,19,21,23,25,27,29,31,33,35,37,39,-1,-1,-1,-1,41,43,-1,45,47,49,-1,-1,51,53,55,-1,57,-1,59,-1,-1,-1,-1,-1,-1,-1,-1,-1,-1,-1,-1,-1,-1,-1,-1,-1,-1,-1,-1,-1],"loss_changes":[2.016126E2,1.9790959E2,5.616852E0,6.347841E1,6.2298767E1,1.1137695E0,0E0,3.2137955E1,9.450634E0,1.2571922E1,5.546112E1,9.0463257E-1,2.0877151E0,8.697174E0,6.159813E0,6.011222E0,1.9500666E0,1.2936455E1,6.8216686E0,1.0764734E1,3.5358215E1,0E0,0E0,0E0,0E0,5.152817E0,3.0313866E0,0E0,2.9402714E0,4.2717476E0,2.915886E0,0E0,0E0,8.998199E0,1.7788978E0,3.413558E0,0E0,6.490162E0,0E0,2.1433472E1,0E0,0E0,0E0,0E0,0E0,0E0,0E0,0E0,0E0,0E0,0E0,0E0,0E0,0E0,0E0,0E0,0E0,0E0,0E0,0E0,0E0],"parents":[2147483647,0,0,1,1,2,2,3,3,4,4,5,5,7,7,8,8,9,9,10,10,11,11,12,12,13,13,14,14,15,15,16,16,17,17,18,18,19,19,20,20,25,25,26,26,28,28,29,29,30,30,33,33,34,34,35,35,37,37,39,39],"right_children":[2,4,6,8,10,12,-1,14,16,18,20,22,24,26,28,30,32,34,36,38,40,-1,-1,-1,-1,42,44,-1,46,48,50,-1,-1,52,54,56,-1,58,-1,60,-1,-1,-1,-1,-1,-1,-1,-1,-1,-1,-1,-1,-1,-1,-1,-1,-1,-1,-1,-1,-1],"split_conditions":[1E0,1E0,1E0,1E0,1E0,1E0,-1.3739275E-2,1E0,1E0,1E0,1E0,1E0,1E0,1E0,1E0,1E0,1E0,1E0,1E0,1E0,1E0,-7.3349856E-2,-4.6891E-2,-6.1324906E-2,-1.9196467E-2,1E0,1E0,-1.3943346E-2,1E0,1E0,1E0,-4.628266E-2,-5.5876104E-3,1E0,1E0,1E0,-2.4010288E-2,1E0,1.4794647E-2,1E0,-6.648228E-2,-4.311415E-2,1.2713902E-3,-2.9475564E-2,-8.102123E-4,6.1289508E-2,1.699924E-2,5.6274994E-3,5.00692E-2,2.2830795E-2,6.34666E-2,-2.4520427E-2,-4.5714937E-3,3.7734315E-2,7.341461E-3,3.8291395E-2,8.299077E-3,-6.894588E-2,-1.7255373E-2,2.2184575E-2,5.665971E-2],"split_indices":[2,22,55,24,51,84,0,25,0,10,34,76,89,69,44,41,51,9,43,33,5,0,0,0,0,64,21,0,50,38,10,0,0,32,73,50,0,30,0,18,0,0,0,0,0,0,0,0,0,0,0,0,0,0,0,0,0,0,0,0,0],"split_type":[0,0,0,0,0,0,0,0,0,0,0,0,0,0,0,0,0,0,0,0,0,0,0,0,0,0,0,0,0,0,0,0,0,0,0,0,0,0,0,0,0,0,0,0,0,0,0,0,0,0,0,0,0,0,0,0,0,0,0,0,0],"sum_hessian":[1.761361E3,1.6498762E3,1.1148483E2,4.2778204E2,1.2220941E3,1.058592E2,5.625629E0,3.4363303E2,8.4149025E1,2.9548422E2,9.266099E2,9.0298485E1,1.5560713E1,3.1852533E2,2.510767E1,7.270624E1,1.1442788E1,2.4849702E2,4.6987198E1,3.6010887E1,8.9059906E2,7.948798E1,1.08105E1,9.804368E0,5.756345E0,2.8250433E2,3.6020996E1,8.711951E0,1.639572E1,5.252902E1,2.0177216E1,5.4498935E0,5.9928946E0,2.2756366E2,2.0933357E1,3.9563477E1,7.4237194E0,2.9089443E1,6.9214416E0,8.8062524E2,9.973786E0,2.7586514E2,6.639208E0,1.7831701E1,1.8189295E1,6.2060933E0,1.0189626E1,4.736712E1,5.161902E0,1.1365665E1,8.811551E0,1.0433899E2,1.2322467E2,1.2569921E1,8.363437E0,2.2497143E1,1.7066336E1,1.9208632E1,9.880813E0,8.3342084E2,4.7204407E1],"tree_param":{"num_deleted":"0","num_feature":"94","num_nodes":"61","size_leaf_vector":"1"}},{"base_weights":[-4.7192676E-3,8.193758E-2,-1.244675E0,-4.2576092E-1,2.5566685E-1,-3.4475464E-2,-1.2667043E0,-6.054934E-1,3.7235203E-1,2.8680214E-1,-7.4072845E-2,-6.6412725E-2,-5.0527103E-2,-6.500528E-1,-1.2840836E-1,5.0979644E-1,-4.0987927E-1,-1.2794061E-1,4.2113036E-1,-6.9778246E-1,-2.0866498E-1,-3.9638677E-1,3.4932774E-2,6.722441E-1,-8.655167E-2,-2.9310012E-2,-9.047722E-3,-2.2723062E-1,3.4577578E-1,4.4663292E-1,-1.3465021E0,-3.8653087E-2,-2.280575E-2,4.8742886E-3,-4.1305546E-2,-4.083602E-2,-6.381572E-3,1.3055235E-2,3.6842823E-2,-2.4320066E-2,2.2747984E-2,-1.4519148E-2,2.511788E-2,2.3750743E-2,-1.3170657E-2,1.6035426E-2,3.6923546E-2,-4.340243E-2,-7.864346E-2],"categories":[],"categories_nodes":[],"categories_segments":[],"categories_sizes":[],"default_left":[0,0,0,0,0,0,0,0,0,0,0,0,0,0,0,0,0,0,0,0,0,0,0,0,0,0,0,0,0,0,0,0,0,0,0,0,0,0,0,0,0,0,0,0,0,0,0,0,0],"id":8,"left_children":[1,3,5,7,9,-1,11,13,15,17,-1,-1,-1,19,21,23,25,27,29,31,33,35,-1,37,39,-1,-1,41,43,45,47,-1,-1,-1,-1,-1,-1,-1,-1,-1,-1,-1,-1,-1,-1,-1,-1,-1,-1],"loss_changes":[1.8899405E2,1.4511737E2,5.3170776E-1,6.0404793E1,6.67084E1,0E0,3.8130188E-1,7.2038345E0,8.565919E0,6.717438E1,0E0,0E0,0E0,6.454056E0,7.0429993E0,6.506077E0,3.8519406E-1,1.3978115E1,4.1635605E1,4.782608E0,6.128815E0,2.5725281E0,0E0,1.2002163E0,3.498418E0,0E0,0E0,1.14301605E1,4.187862E0,3.2767E1,6.3798904E-2,0E0,0E0,0E0,0E0,0E0,0E0,0E0,0E0,0E0,0E0,0E0,0E0,0E0,0E0,0E0,0E0,0E0,0E0],"parents":[2147483647,0,0,1,1,2,2,3,3,4,4,6,6,7,7,8,8,9,9,13,13,14,14,15,15,16,16,17,17,18,18,19,19,20,20,21,21,23,23,24,24,27,27,28,28,29,29,30,30],"right_children":[2,4,6,8,10,-1,12,14,16,18,-1,-1,-1,20,22,24,26,28,30,32,34,36,-1,38,40,-1,-1,42,44,46,48,-1,-1,-1,-1,-1,-1,-1,-1,-1,-1,-1,-1,-1,-1,-1,-1,-1,-1],"split_conditions":[1E0,1E0,1E0,1E0,1E0,-3.4475464E-2,1E0,1E0,1E0,1E0,-7.4072845E-2,-6.6412725E-2,-5.0527103E-2,1E0,1E0,1E0,1E0,1E0,1E0,1E0,1E0,1E0,3.4932774E-2,1E0,1E0,-2.9310012E-2,-9.047722E-3,1E0,1E0,1E0,1E0,-3.8653087E-2,-2.280575E-2,4.8742886E-3,-4.1305546E-2,-4.083602E-2,-6.381572E-3,1.3055235E-2,3.6842823E-2,-2.4320066E-2,2.2747984E-2,-1.4519148E-2,2.511788E-2,2.3750743E-2,-1.3170657E-2,1.6035426E-2,3.6923546E-2,-4.340243E-2,-7.864346E-2],"split_indices":[2,22,63,24,3,0,48,62,0,51,0,0,0,60,59,58,51,10,5,59,10,44,0,49,10,0,0,80,43,41,85,0,0,0,0,0,0,0,0,0,0,0,0,0,0,0,0,0,0],"split_type":[0,0,0,0,0,0,0,0,0,0,0,0,0,0,0,0,0,0,0,0,0,0,0,0,0,0,0,0,0,0,0,0,0,0,0,0,0,0,0,0,0,0,0,0,0,0,0,0,0],"sum_hessian":[1.7569421E3,1.6430482E3,1.1389387E2,4.1852353E2,1.2245248E3,5.579623E0,1.0831425E2,3.4179395E2,7.6729576E1,1.2037837E3,2.0741074E1,8.395621E1,2.4358036E1,3.1226605E2,2.9527912E1,6.555866E1,1.1170912E1,2.9451294E2,9.092707E2,2.812699E2,3.099615E1,2.2695147E1,6.832765E0,5.1423443E1,1.4135221E1,5.4288626E0,5.7420497E0,2.4391019E2,5.0602764E1,8.9707544E2,1.2195243E1,2.1278777E2,6.8482124E1,2.1284622E1,9.711528E0,8.056255E0,1.4638892E1,7.6685147E0,4.375493E1,8.18973E0,5.9454904E0,2.2503352E2,1.8876654E1,4.1928013E1,8.67475E0,6.2814E2,2.689355E2,5.4695044E0,6.725738E0],"tree_param":{"num_deleted":"0","num_feature":"94","num_nodes":"49","size_leaf_vector":"1"}},{"base_weights":[2.2824526E-2,1.0539892E-1,-1.2113433E0,-4.3218762E-1,2.8623164E-1,-1.7714532E-2,-1.2531631E0,-6.0368705E-1,3.0492213E-1,1.0153718E0,2.0885348E-1,-6.417112E-2,-3.1525116E-2,-6.7651457E-1,3.1284866E-1,4.095117E-1,-2.1319533E-2,9.138119E-1,6.603842E-2,2.3885375E-1,-7.481474E-2,-5.7981086E-1,-9.4653857E-1,-7.7016787E-3,5.2273977E-1,1.8815243E-1,9.2560434E-1,7.2230536E-1,1.0552336E0,-1.4593567E-1,3.718987E-1,-3.2161545E-2,3.9598948E-4,-5.1904973E-2,-2.7553502E-2,4.40605E-2,1.0750609E-2,3.2480077E-3,2.6939755E-2,3.343558E-2,5.6335308E-2,2.3929695E-2,5.6296863E-2,6.286867E-2,4.0845186E-2,-9.930851E-3,2.9478699E-2,-4.0590443E-2,2.1142015E-2],"categories":[],"categories_nodes":[],"categories_segments":[],"categories_sizes":[],"default_left":[0,0,0,0,0,0,0,0,0,0,0,0,0,0,0,0,0,0,0,0,0,0,0,0,0,0,0,0,0,0,0,0,0,0,0,0,0,0,0,0,0,0,0,0,0,0,0,0,0],"id":9,"left_children":[1,3,5,7,9,-1,11,13,15,17,19,-1,-1,21,23,25,-1,27,-1,29,-1,31,33,-1,35,37,39,41,43,45,47,-1,-1,-1,-1,-1,-1,-1,-1,-1,-1,-1,-1,-1,-1,-1,-1,-1,-1],"loss_changes":[1.7973477E2,1.6079729E2,3.5201874E0,5.2825638E1,6.959993E1,0E0,1.1702881E0,2.2783363E1,6.2373204E0,2.4670868E0,5.7646645E1,0E0,0E0,7.639572E0,2.586804E0,7.806363E0,0E0,1.7332306E0,0E0,5.644053E1,0E0,8.707588E0,2.3648224E0,0E0,1.7819486E0,2.130994E0,3.1664848E-1,3.623026E0,1.4216728E0,1.1109819E1,4.9711807E1,0E0,0E0,0E0,0E0,0E0,0E0,0E0,0E0,0E0,0E0,0E0,0E0,0E0,0E0,0E0,0E0,0E0,0E0],"parents":[2147483647,0,0,1,1,2,2,3,3,4,4,6,6,7,7,8,8,9,9,10,10,13,13,14,14,15,15,17,17,19,19,21,21,22,22,24,24,25,25,26,26,27,27,28,28,29,29,30,30],"right_children":[2,4,6,8,10,-1,12,14,16,18,20,-1,-1,22,24,26,-1,28,-1,30,-1,32,34,-1,36,38,40,42,44,46,48,-1,-1,-1,-1,-1,-1,-1,-1,-1,-1,-1,-1,-1,-1,-1,-1,-1,-1],"split_conditions":[1E0,1E0,1E0,1E0,1E0,-1.7714532E-2,1E0,1E0,1E0,1E0,1E0,-6.417112E-2,-3.1525116E-2,1E0,1E0,1E0,-2.1319533E-2,1E0,6.603842E-2,1E0,-7.481474E-2,1E0,1E0,-7.7016787E-3,1E0,1E0,1E0,1E0,1E0,1E0,1E0,-3.2161545E-2,3.9598948E-4,-5.1904973E-2,-2.7553502E-2,4.40605E-2,1.0750609E-2,3.2480077E-3,2.6939755E-2,3.343558E-2,5.6335308E-2,2.3929695E-2,5.6296863E-2,6.286867E-2,4.0845186E-2,-9.930851E-3,2.9478699E-2,-4.0590443E-2,2.1142015E-2],"split_indices":[2,22,63,24,17,0,67,25,0,59,3,0,0,10,44,41,0,10,0,51,0,60,71,0,50,9,10,9,90,9,34,0,0,0,0,0,0,0,0,0,0,0,0,0,0,0,0,0,0],"split_type":[0,0,0,0,0,0,0,0,0,0,0,0,0,0,0,0,0,0,0,0,0,0,0,0,0,0,0,0,0,0,0,0,0,0,0,0,0,0,0,0,0,0,0,0,0,0,0,0,0],"sum_hessian":[1.7613975E3,1.6517955E3,1.0960198E2,4.1542218E2,1.2363733E3,5.5398793E0,1.040621E2,3.3715833E2,7.8263855E1,1.1745581E2,1.1189175E3,9.82274E1,5.8347025E0,3.1258255E2,2.4575785E1,6.8856316E1,9.407536E0,9.113952E1,2.6316292E1,1.1004167E3,1.8500732E1,2.324739E2,8.010864E1,7.704347E0,1.6871439E1,4.914285E1,1.971347E1,4.1308693E1,4.983083E1,2.8270047E2,8.177163E2,2.0974643E2,2.2727472E1,6.3728848E1,1.6379795E1,6.9323626E0,9.939076E0,3.7243313E1,1.1899536E1,1.0555204E1,9.158267E0,2.7119658E1,1.4189034E1,2.4648998E1,2.518183E1,2.6448642E2,1.8214046E1,3.3122692E1,7.8459357E2],"tree_param":{"num_deleted":"0","num_feature":"94","num_nodes":"49","size_leaf_vector":"1"}},{"base_weights":[2.9405887E-4,7.736398E-2,-1.1453265E0,-3.9465186E-1,2.4086782E-1,-2.1592781E-2,-1.1826962E0,-5.710296E-1,3.1752786E-1,5.2357143E-1,5.0282896E-2,-1.006282E0,-1.3476672E0,-6.3540304E-1,-7.6488025E-2,4.2422044E-1,-2.0714957E-2,5.6054115E-1,-6.30406E-2,7.6516765E-1,-6.391076E-3,-8.630459E-1,-6.378427E-2,-6.9605164E-2,-3.946898E-2,-5.277201E-1,-8.329127E-1,2.4088068E-2,-2.7048758E-1,8.2032585E-1,1.307837E-1,1.0625063E0,4.8422787E-1,9.7237253E-1,5.4155284E-1,1.621939E-1,-2.0467238E-1,-2.6845267E-2,-4.823079E-2,1.9178554E-2,-3.2186974E-2,-3.3029053E-2,-6.43171E-2,-7.5469785E-3,-2.43659E-2,6.2265974E-2,3.353877E-2,1.4728381E-2,-2.4256479E-2,4.0242042E-2,5.722136E-2,1.8544618E-2,4.029628E-2,5.842768E-2,1.0159005E-2,4.4948015E-2,1.2430651E-3,9.825135E-3,-5.3728785E-2,-8.915524E-3,-6.7244895E-2],"categories":[],"categories_nodes":[],"categories_segments":[],"categories_sizes":[],"default_left":[0,0,0,0,0,0,0,0,0,0,0,0,0,0,0,0,0,0,0,0,0,0,0,0,0,0,0,0,0,0,0,0,0,0,0,0,0,0,0,0,0,0,0,0,0,0,0,0,0,0,0,0,0,0,0,0,0,0,0,0,0],"id":10,"left_children":[1,3,5,7,9,-1,11,13,15,17,19,21,23,25,27,29,-1,31,-1,33,35,37,-1,-1,-1,39,41,-1,43,45,47,49,51,53,55,57,59,-1,-1,-1,-1,-1,-1,-1,-1,-1,-1,-1,-1,-1,-1,-1,-1,-1,-1,-1,-1,-1,-1,-1,-1],"loss_changes":[1.5272577E2,1.2517694E2,2.3962708E0,5.2606117E1,6.4864204E1,0E0,1.642395E0,1.0611984E1,6.6944447E0,3.2692932E1,2.9196215E1,9.726105E-1,1.4880371E-1,5.8593216E0,4.4303994E0,8.41926E0,0E0,1.7708893E1,0E0,1.9259586E0,2.23816E1,7.4666786E-1,0E0,0E0,0E0,2.0799667E1,7.1805115E0,0E0,7.068417E-1,1.1367531E0,4.513888E0,3.8640594E-1,1.4823959E1,3.7187366E0,5.0957346E0,1.5567366E1,9.008219E0,0E0,0E0,0E0,0E0,0E0,0E0,0E0,0E0,0E0,0E0,0E0,0E0,0E0,0E0,0E0,0E0,0E0,0E0,0E0,0E0,0E0,0E0,0E0,0E0],"parents":[2147483647,0,0,1,1,2,2,3,3,4,4,6,6,7,7,8,8,9,9,10,10,11,11,12,12,13,13,14,14,15,15,17,17,19,19,20,20,21,21,25,25,26,26,28,28,29,29,30,30,31,31,32,32,33,33,34,34,35,35,36,36],"right_children":[2,4,6,8,10,-1,12,14,16,18,20,22,24,26,28,30,-1,32,-1,34,36,38,-1,-1,-1,40,42,-1,44,46,48,50,52,54,56,58,60,-1,-1,-1,-1,-1,-1,-1,-1,-1,-1,-1,-1,-1,-1,-1,-1,-1,-1,-1,-1,-1,-1,-1,-1],"split_conditions":[1E0,1E0,1E0,1E0,1E0,-2.1592781E-2,1E0,1E0,1E0,1E0,1E0,1E0,1E0,1E0,1E0,1E0,-2.0714957E-2,1E0,-6.30406E-2,1E0,1E0,1E0,-6.378427E-2,-6.9605164E-2,-3.946898E-2,1E0,1E0,2.4088068E-2,1E0,1E0,1E0,1E0,1E0,1E0,1E0,1E0,1E0,-2.6845267E-2,-4.823079E-2,1.9178554E-2,-3.2186974E-2,-3.3029053E-2,-6.43171E-2,-7.5469785E-3,-2.43659E-2,6.2265974E-2,3.353877E-2,1.4728381E-2,-2.4256479E-2,4.0242042E-2,5.722136E-2,1.8544618E-2,4.029628E-2,5.842768E-2,1.0159005E-2,4.4948015E-2,1.2430651E-3,9.825135E-3,-5.3728785E-2,-8.915524E-3,-6.7244895E-2],"split_indices":[2,22,63,24,37,0,61,9,0,3,17,56,46,23,63,37,0,17,0,90,50,90,0,0,0,21,70,0,23,17,75,85,9,61,50,5,3,0,0,0,0,0,0,0,0,0,0,0,0,0,0,0,0,0,0,0,0,0,0,0,0],"split_type":[0,0,0,0,0,0,0,0,0,0,0,0,0,0,0,0,0,0,0,0,0,0,0,0,0,0,0,0,0,0,0,0,0,0,0,0,0,0,0,0,0,0,0,0,0,0,0,0,0,0,0,0,0,0,0,0,0,0,0,0,0],"sum_hessian":[1.7277593E3,1.619727E3,1.0803226E2,4.1635284E2,1.2033741E3,6.001744E0,1.0203052E2,3.338661E2,8.248676E1,4.8387393E2,7.1950024E2,5.2736126E1,4.9294388E1,2.951608E2,3.8705296E1,7.2358055E1,1.012871E1,4.7472424E2,9.149695E0,5.1931812E1,6.675684E2,3.717467E1,1.5561455E1,4.4276726E1,5.017664E0,1.9339372E2,1.01767075E2,9.59928E0,2.9106014E1,3.0028074E1,4.232998E1,6.094222E1,4.13782E2,2.5216967E1,2.6714846E1,3.6090106E2,3.0666736E2,1.0320777E1,2.6853895E1,2.158049E1,1.7181323E2,7.552115E1,2.6245922E1,1.9855135E1,9.25088E0,5.9089355E0,2.4119139E1,3.3850246E1,8.4797325E0,1.7312836E1,4.3629383E1,3.0757492E2,1.06207085E2,1.9678745E1,5.5382214E0,1.5354171E1,1.1360675E1,3.5197806E2,8.922984E0,3.008677E2,5.799655E0],"tree_param":{"num_deleted":"0","num_feature":"94","num_nodes":"61","size_leaf_vector":"1"}},{"base_weights":[5.406614E-3,7.9157524E-2,-1.1143187E0,-3.9932987E-1,2.4355735E-1,-1.1569865E0,-1.6430862E-2,-5.6810725E-1,2.6944673E-1,5.2359056E-1,5.3944297E-2,-2.6759088E-2,-1.1950825E0,-6.191154E-1,1.320423E-1,6.215614E-1,2.9108506E-2,5.626896E-1,-6.662057E-2,-3.0584875E-1,1.8572563E-1,-1.219821E0,-3.2217126E-2,-5.137477E-1,-9.199328E-1,4.2142503E-2,-2.9651272E-1,4.9936264E-3,8.3618325E-1,-3.576381E-1,1.8122815E-1,5.8592594E-1,-6.2456068E-2,2.9763682E-2,-3.5571566E-1,-8.584471E-1,2.3345011E-1,-1.0802915E0,-6.677824E-2,-4.0974647E-2,-1.820819E-2,-2.8756768E-2,-5.5218454E-2,1.8609198E-2,-3.374254E-2,5.0517477E-2,1.67453E-2,-7.061577E-3,-2.777735E-2,-5.314409E-3,2.7152115E-2,3.3335812E-2,7.0802956E-3,-2.2273956E-2,-3.9330986E-3,-2.565366E-2,-6.555921E-2,1.3029625E-2,-6.9537714E-2,-6.2241174E-2,-4.078266E-2],"categories":[],"categories_nodes":[],"categories_segments":[],"categories_sizes":[],"default_left":[0,0,0,0,0,0,0,0,0,0,0,0,0,0,0,0,0,0,0,0,0,0,0,0,0,0,0,0,0,0,0,0,0,0,0,0,0,0,0,0,0,0,0,0,0,0,0,0,0,0,0,0,0,0,0,0,0,0,0,0,0],"id":11,"left_children":[1,3,5,7,9,11,-1,13,15,17,19,-1,21,23,25,27,29,31,-1,33,35,37,-1,39,41,-1,43,-1,45,47,49,51,-1,-1,53,55,57,59,-1,-1,-1,-1,-1,-1,-1,-1,-1,-1,-1,-1,-1,-1,-1,-1,-1,-1,-1,-1,-1,-1,-1],"loss_changes":[1.4431485E2,1.2906573E2,3.240097E0,4.7518982E1,6.47973E1,1.7773743E0,0E0,1.2059792E1,7.1954513E0,3.651071E1,3.4625137E1,0E0,5.128479E-1,9.441879E0,7.438802E0,3.7826385E0,3.1069999E0,2.1079971E1,0E0,9.011522E0,2.6823265E1,1.2481689E-2,0E0,1.0399704E1,4.4444427E0,0E0,4.163115E0,0E0,1.7857094E0,5.611359E-1,3.9874735E0,1.7060257E1,0E0,0E0,4.595257E0,3.0119038E0,2.2919775E1,9.914818E-1,0E0,0E0,0E0,0E0,0E0,0E0,0E0,0E0,0E0,0E0,0E0,0E0,0E0,0E0,0E0,0E0,0E0,0E0,0E0,0E0,0E0,0E0,0E0],"parents":[2147483647,0,0,1,1,2,2,3,3,4,4,5,5,7,7,8,8,9,9,10,10,12,12,13,13,14,14,15,15,16,16,17,17,19,19,20,20,21,21,23,23,24,24,26,26,28,28,29,29,30,30,31,31,34,34,35,35,36,36,37,37],"right_children":[2,4,6,8,10,12,-1,14,16,18,20,-1,22,24,26,28,30,32,-1,34,36,38,-1,40,42,-1,44,-1,46,48,50,52,-1,-1,54,56,58,60,-1,-1,-1,-1,-1,-1,-1,-1,-1,-1,-1,-1,-1,-1,-1,-1,-1,-1,-1,-1,-1,-1,-1],"split_conditions":[1E0,1E0,1E0,1E0,1E0,1E0,-1.6430862E-2,1E0,1E0,1E0,1E0,-2.6759088E-2,1E0,1E0,1E0,1E0,1E0,1E0,-6.662057E-2,1E0,1E0,1E0,-3.2217126E-2,1E0,1E0,4.2142503E-2,1E0,4.9936264E-3,1E0,1E0,1E0,1E0,-6.2456068E-2,2.9763682E-2,1E0,1E0,1E0,1E0,-6.677824E-2,-4.0974647E-2,-1.820819E-2,-2.8756768E-2,-5.5218454E-2,1.8609198E-2,-3.374254E-2,5.0517477E-2,1.67453E-2,-7.061577E-3,-2.777735E-2,-5.314409E-3,2.7152115E-2,3.3335812E-2,7.0802956E-3,-2.2273956E-2,-3.9330986E-3,-2.565366E-2,-6.555921E-2,1.3029625E-2,-6.9537714E-2,-6.2241174E-2,-4.078266E-2],"split_indices":[2,22,67,24,37,63,0,25,37,3,51,0,38,10,37,44,81,8,0,17,34,61,0,51,90,0,50,0,71,86,86,0,0,0,49,35,3,73,0,0,0,0,0,0,0,0,0,0,0,0,0,0,0,0,0,0,0,0,0,0,0],"split_type":[0,0,0,0,0,0,0,0,0,0,0,0,0,0,0,0,0,0,0,0,0,0,0,0,0,0,0,0,0,0,0,0,0,0,0,0,0,0,0,0,0,0,0,0,0,0,0,0,0,0,0,0,0,0,0,0,0,0,0,0,0],"sum_hessian":[1.7454921E3,1.6385012E3,1.0699087E2,4.186339E2,1.2198673E3,1.0103176E2,5.959106E0,3.3439426E2,8.423966E1,4.9179312E2,7.280742E2,6.7012973E0,9.433046E1,3.1179474E2,2.2599503E1,3.352973E1,5.070993E1,4.8232907E2,9.464048E0,1.9482816E2,5.332461E2,8.911277E1,5.2176914E0,2.3291808E2,7.887667E1,8.13686E0,1.4462643E1,1.0200457E1,2.3329273E1,1.3933806E1,3.6776123E1,4.768896E2,5.439462E0,9.642669E0,1.8518549E2,2.2564547E1,5.1068152E2,4.5090096E1,4.4022675E1,7.5046555E1,1.5787152E2,2.8923496E1,4.995318E1,5.2318435E0,9.230799E0,1.6560024E1,6.76925E0,7.4744134E0,6.459393E0,2.0885588E1,1.5890537E1,4.0309473E2,7.379486E1,1.3940979E2,4.5775703E1,1.4010104E1,8.554442E0,5.0311346E2,7.568062E0,2.5519901E1,1.9570194E1],"tree_param":{"num_deleted":"0","num_feature":"94","num_nodes":"61","size_leaf_vector":"1"}},{"base_weights":[-1.6516222E-2,5.4007795E-2,-1.0839707E0,-3.9280236E-1,2.0540592E-1,-9.198424E-1,-1.2503098E0,-5.4321307E-1,2.1311809E-1,9.286382E-1,1.3380589E-1,-7.5007504E-1,-6.432972E-2,-6.542785E-2,-3.389516E-2,-6.069423E-1,2.5845826E-1,2.3760557E-2,5.4915094E-1,9.679618E-1,1.506151E-2,3.8549265E-1,-2.2184594E-2,-5.228569E-2,-6.2192184E-1,-5.2622217E-1,-8.5193676E-1,-1.5504188E-2,5.6666476E-1,-2.661728E-2,1.4541979E-1,5.0798226E-2,3.7313932E-1,1.0265133E0,6.4219046E-1,4.174669E-1,-4.340718E-1,-4.590201E-1,7.355544E-2,-6.9047546E-1,-1.3532027E-2,-1.4591329E-2,-3.535527E-2,-4.5883548E-2,-1.6084818E-2,5.415351E-2,1.0876474E-2,1.9151087E-4,4.170221E-2,3.3908345E-2,8.000639E-3,5.3065367E-2,2.1706564E-2,1.9906705E-2,5.1835984E-2,1.5892407E-2,3.3206906E-2,-1.3172895E-2,-2.5630817E-2,-5.3036947E-2,-1.3507E-2,5.0841267E-3,-7.093106E-2,-2.8517796E-2,-4.5168903E-2],"categories":[],"categories_nodes":[],"categories_segments":[],"categories_sizes":[],"default_left":[0,0,0,0,0,0,0,0,0,0,0,0,0,0,0,0,0,0,0,0,0,0,0,0,0,0,0,0,0,0,0,0,0,0,0,0,0,0,0,0,0,0,0,0,0,0,0,0,0,0,0,0,0,0,0,0,0,0,0,0,0,0,0,0,0],"id":12,"left_children":[1,3,5,7,9,11,13,15,17,19,21,23,-1,-1,-1,25,27,29,31,33,-1,35,37,-1,39,41,43,-1,45,-1,47,-1,49,51,53,55,57,59,61,63,-1,-1,-1,-1,-1,-1,-1,-1,-1,-1,-1,-1,-1,-1,-1,-1,-1,-1,-1,-1,-1,-1,-1,-1,-1],"loss_changes":[1.3042169E2,1.1002731E2,1.7810822E0,3.7635788E1,6.2773457E1,2.6352997E0,7.9797363E-1,1.7021576E1,5.2422E0,2.4037704E0,4.344592E1,9.381008E-1,0E0,0E0,0E0,5.6048813E0,4.558215E0,3.7219367E0,2.0629492E0,1.2931061E0,0E0,1.1276176E1,2.8640032E1,0E0,5.7688236E-1,9.665962E0,2.2924423E0,0E0,2.7522488E0,0E0,4.3829184E0,0E0,1.3973544E0,1.2930298E0,1.3458734E0,9.814812E0,8.456063E-2,1.3703833E1,2.372721E1,1.469059E-1,0E0,0E0,0E0,0E0,0E0,0E0,0E0,0E0,0E0,0E0,0E0,0E0,0E0,0E0,0E0,0E0,0E0,0E0,0E0,0E0,0E0,0E0,0E0,0E0,0E0],"parents":[2147483647,0,0,1,1,2,2,3,3,4,4,5,5,6,6,7,7,8,8,9,9,10,10,11,11,15,15,16,16,17,17,18,18,19,19,21,21,22,22,24,24,25,25,26,26,28,28,30,30,32,32,33,33,34,34,35,35,36,36,37,37,38,38,39,39],"right_children":[2,4,6,8,10,12,14,16,18,20,22,24,-1,-1,-1,26,28,30,32,34,-1,36,38,-1,40,42,44,-1,46,-1,48,-1,50,52,54,56,58,60,62,64,-1,-1,-1,-1,-1,-1,-1,-1,-1,-1,-1,-1,-1,-1,-1,-1,-1,-1,-1,-1,-1,-1,-1,-1,-1],"split_conditions":[1E0,1E0,1E0,1E0,1E0,1E0,1E0,1E0,1E0,1E0,1E0,1E0,-6.432972E-2,-6.542785E-2,-3.389516E-2,1E0,1E0,1E0,1E0,1E0,1.506151E-2,1E0,1E0,-5.228569E-2,1E0,1E0,1E0,-1.5504188E-2,1E0,-2.661728E-2,1E0,5.0798226E-2,1E0,1E0,1E0,1E0,1E0,1E0,1E0,1E0,-1.3532027E-2,-1.4591329E-2,-3.535527E-2,-4.5883548E-2,-1.6084818E-2,5.415351E-2,1.0876474E-2,1.9151087E-4,4.170221E-2,3.3908345E-2,8.000639E-3,5.3065367E-2,2.1706564E-2,1.9906705E-2,5.1835984E-2,1.5892407E-2,3.3206906E-2,-1.3172895E-2,-2.5630817E-2,-5.3036947E-2,-1.3507E-2,5.0841267E-3,-7.093106E-2,-2.8517796E-2,-4.5168903E-2],"split_indices":[2,22,61,24,17,56,46,25,10,1,37,37,0,0,0,10,44,49,90,61,0,43,34,0,49,37,93,0,50,0,46,0,37,55,69,10,41,32,5,59,0,0,0,0,0,0,0,0,0,0,0,0,0,0,0,0,0,0,0,0,0,0,0,0,0],"split_type":[0,0,0,0,0,0,0,0,0,0,0,0,0,0,0,0,0,0,0,0,0,0,0,0,0,0,0,0,0,0,0,0,0,0,0,0,0,0,0,0,0,0,0,0,0,0,0,0,0,0,0,0,0,0,0,0,0,0,0,0,0,0,0,0,0],"sum_hessian":[1.7306833E3,1.6243181E3,1.0636518E2,4.106886E2,1.2136295E3,5.6825207E1,4.9539978E1,3.2909836E2,8.1590256E1,1.0824783E2,1.1053817E3,4.0925987E1,1.5899218E1,4.3797195E1,5.7427835E0,3.050881E2,2.401023E1,5.2868877E1,2.8721378E1,1.01352646E2,6.8951926E0,4.2239178E2,6.829899E2,1.0210753E1,3.0715235E1,2.3184746E2,7.3240654E1,8.43826E0,1.557197E1,8.884049E0,4.398483E1,6.557527E0,2.216385E1,8.408827E1,1.7264368E1,4.070037E2,1.53881035E1,1.220976E2,5.6089233E2,2.4891912E1,5.823322E0,1.0212423E2,1.2972324E2,6.451235E1,8.728301E0,5.433355E0,1.0138616E1,3.7317463E1,6.6673636E0,8.218916E0,1.3944935E1,7.8675606E1,5.4126716E0,1.1907505E1,5.3568635E0,2.9154935E2,1.1545433E2,6.2235637E0,9.16454E0,2.8067266E1,9.4030334E1,5.514299E2,9.46244E0,1.8265488E1,6.6264253E0],"tree_param":{"num_deleted":"0","num_feature":"94","num_nodes":"65","size_leaf_vector":"1"}},{"base_weights":[1.3967481E-3,6.660352E-2,-1.023684E0,-3.7412268E-1,2.1720712E-1,-8.5264504E-1,-1.1949927E0,-5.3130543E-1,2.899922E-1,6.9449884E-1,1.3585475E-1,-7.046363E-1,-6.118935E-2,-3.7864085E-2,-6.310722E-2,-5.879884E-1,1.5405795E-1,3.9753494E-1,-2.3587855E-2,7.3996586E-1,-2.4362521E-2,7.800139E-1,7.3071994E-2,-7.9924655E-1,-2.0690424E-2,-5.045321E-1,-8.2871634E-1,3.2393105E-2,-1.7322399E-1,8.2845485E-1,1.0190852E-1,8.3159983E-1,9.282588E-2,5.718776E-1,9.043395E-1,9.857511E-2,-6.6105545E-2,-4.4006508E-2,-2.3439413E-2,-2.9228497E-2,-1.7078487E-4,-4.8703086E-2,-3.0832017E-2,3.5316066E-3,-2.611301E-2,5.031463E-2,1.327072E-2,-3.8101163E-3,2.8756857E-2,3.776729E-2,6.3141584E-2,-4.5497394E-3,2.3888709E-2,1.5284027E-2,5.9481382E-2,1.9976294E-2,4.850913E-2,-1.565684E-2,9.5352E-3],"categories":[],"categories_nodes":[],"categories_segments":[],"categories_sizes":[],"default_left":[0,0,0,0,0,0,0,0,0,0,0,0,0,0,0,0,0,0,0,0,0,0,0,0,0,0,0,0,0,0,0,0,0,0,0,0,0,0,0,0,0,0,0,0,0,0,0,0,0,0,0,0,0,0,0,0,0,0,0],"id":13,"left_children":[1,3,5,7,9,11,13,15,17,19,21,23,-1,-1,-1,25,27,29,-1,31,-1,33,35,37,-1,39,41,-1,43,45,47,49,51,53,55,57,-1,-1,-1,-1,-1,-1,-1,-1,-1,-1,-1,-1,-1,-1,-1,-1,-1,-1,-1,-1,-1,-1,-1],"loss_changes":[1.1558682E2,1.0799419E2,2.011383E0,4.3416218E1,4.6980507E1,2.1722374E0,4.8973083E-1,1.3123238E1,6.7381997E0,9.833664E0,4.188395E1,8.207741E-1,0E0,0E0,0E0,5.810997E0,4.3817854E0,8.911145E0,0E0,1.0014061E1,0E0,1.8634071E0,3.379274E1,4.0273094E-1,0E0,9.334942E0,1.8117561E0,0E0,1.4563574E0,2.5958214E0,3.6700087E0,3.9437332E0,1.616719E0,5.7409506E0,1.4695587E0,3.53356E1,0E0,0E0,0E0,0E0,0E0,0E0,0E0,0E0,0E0,0E0,0E0,0E0,0E0,0E0,0E0,0E0,0E0,0E0,0E0,0E0,0E0,0E0,0E0],"parents":[2147483647,0,0,1,1,2,2,3,3,4,4,5,5,6,6,7,7,8,8,9,9,10,10,11,11,15,15,16,16,17,17,19,19,21,21,22,22,23,23,25,25,26,26,28,28,29,29,30,30,31,31,32,32,33,33,34,34,35,35],"right_children":[2,4,6,8,10,12,14,16,18,20,22,24,-1,-1,-1,26,28,30,-1,32,-1,34,36,38,-1,40,42,-1,44,46,48,50,52,54,56,58,-1,-1,-1,-1,-1,-1,-1,-1,-1,-1,-1,-1,-1,-1,-1,-1,-1,-1,-1,-1,-1,-1,-1],"split_conditions":[1E0,1E0,1E0,1E0,1E0,1E0,1E0,1E0,1E0,1E0,1E0,1E0,-6.118935E-2,-3.7864085E-2,-6.310722E-2,1E0,1E0,1E0,-2.3587855E-2,1E0,-2.4362521E-2,1E0,1E0,1E0,-2.0690424E-2,1E0,1E0,3.2393105E-2,1E0,1E0,1E0,1E0,1E0,1E0,1E0,1E0,-6.6105545E-2,-4.4006508E-2,-2.3439413E-2,-2.9228497E-2,-1.7078487E-4,-4.8703086E-2,-3.0832017E-2,3.5316066E-3,-2.611301E-2,5.031463E-2,1.327072E-2,-3.8101163E-3,2.8756857E-2,3.776729E-2,6.3141584E-2,-4.5497394E-3,2.3888709E-2,1.5284027E-2,5.9481382E-2,1.9976294E-2,4.850913E-2,-1.565684E-2,9.5352E-3],"split_indices":[2,22,61,24,28,56,37,25,0,92,17,89,0,0,0,10,37,37,0,65,0,10,3,71,0,70,37,0,86,71,9,26,50,9,51,34,0,0,0,0,0,0,0,0,0,0,0,0,0,0,0,0,0,0,0,0,0,0,0],"split_type":[0,0,0,0,0,0,0,0,0,0,0,0,0,0,0,0,0,0,0,0,0,0,0,0,0,0,0,0,0,0,0,0,0,0,0,0,0,0,0,0,0,0,0,0,0,0,0,0,0,0,0,0,0,0,0,0,0,0,0],"sum_hessian":[1.727229E3,1.6248079E3,1.0242119E2,4.134383E2,1.2113695E3,5.4241898E1,4.817929E1,3.3447476E2,7.896353E1,1.7530772E2,1.0360618E3,4.084984E1,1.339206E1,8.041309E0,4.013798E1,3.0905637E2,2.5418392E1,6.961369E1,9.349837E0,1.6917276E2,6.1349673E0,9.0997E1,9.450648E2,2.9503706E1,1.1346132E1,2.3179341E2,7.726295E1,9.741244E0,1.5677147E1,2.7591934E1,4.2021763E1,1.4793968E2,2.1233068E1,3.612281E1,5.4874187E1,9.290123E2,1.6052448E1,2.2366001E1,7.1377044E0,1.9972673E2,3.206669E1,4.371208E1,3.3550865E1,9.698719E0,5.978428E0,2.0370586E1,7.2213473E0,3.1140331E1,1.0881431E1,1.2804865E2,1.989104E1,1.4887568E1,6.3455E0,2.628924E1,9.83357E0,7.14695E0,4.7727238E1,1.694342E2,7.595782E2],"tree_param":{"num_deleted":"0","num_feature":"94","num_nodes":"59","size_leaf_vector":"1"}},{"base_weights":[2.7694188E-3,6.705415E-2,-1.026367E0,-3.427313E-1,2.0485027E-1,-2.0513466E-2,-1.062473E0,-4.2633146E-1,1.8891421E-1,4.8819432E-1,1.5076356E-2,-9.357528E-1,-1.1869215E0,4.9578223E-1,-4.6512088E-1,-2.3343337E-1,5.5883634E-1,5.2384263E-1,-6.300627E-2,7.261848E-1,-3.858969E-2,-8.004601E-1,-5.848762E-2,-3.5968196E-2,-6.337478E-2,5.696544E-2,-1.7989362E-3,-4.9884784E-1,3.7602954E-2,2.535053E-2,-4.9573758E-1,-1.0598087E-2,7.580744E-1,4.2665416E-1,8.047436E-1,8.1642616E-1,1.34205315E-2,6.0366258E-2,-4.0721822E-1,-8.777715E-1,-1.4511232E-2,-2.7532712E-2,1.3084694E-2,-6.5270546E-3,-3.3731442E-2,5.051593E-2,1.897244E-2,9.750482E-3,3.716602E-2,4.2153068E-2,5.80864E-3,4.66972E-2,2.0841261E-2,4.237293E-3,-6.265755E-2,-2.3845458E-2,1.2853846E-2,-4.733671E-2,-2.857926E-2],"categories":[],"categories_nodes":[],"categories_segments":[],"categories_sizes":[],"default_left":[0,0,0,0,0,0,0,0,0,0,0,0,0,0,0,0,0,0,0,0,0,0,0,0,0,0,0,0,0,0,0,0,0,0,0,0,0,0,0,0,0,0,0,0,0,0,0,0,0,0,0,0,0,0,0,0,0,0,0],"id":14,"left_children":[1,3,5,7,9,-1,11,13,15,17,19,21,23,25,27,29,31,33,-1,35,37,39,-1,-1,-1,-1,-1,41,-1,-1,43,-1,45,47,49,51,-1,53,55,57,-1,-1,-1,-1,-1,-1,-1,-1,-1,-1,-1,-1,-1,-1,-1,-1,-1,-1,-1],"loss_changes":[1.15027725E2,9.247405E1,1.8380051E0,1.8399822E1,6.5876144E1,0E0,4.0221405E-1,1.298101E1,8.988913E0,3.1288567E1,2.8070505E1,7.1808624E-1,7.712593E-1,5.1309195E0,1.4439468E1,5.530111E0,4.847746E0,1.2824142E1,0E0,1.9130688E0,2.4983023E1,1.1764183E0,0E0,0E0,0E0,0E0,0E0,1.3302559E1,0E0,0E0,1.2561111E0,0E0,1.9536829E0,2.629676E1,3.1434708E0,1.6124058E0,0E0,1.7407486E1,6.8321476E0,1.1371231E-1,0E0,0E0,0E0,0E0,0E0,0E0,0E0,0E0,0E0,0E0,0E0,0E0,0E0,0E0,0E0,0E0,0E0,0E0,0E0],"parents":[2147483647,0,0,1,1,2,2,3,3,4,4,6,6,7,7,8,8,9,9,10,10,11,11,12,12,13,13,14,14,15,15,16,16,17,17,19,19,20,20,21,21,27,27,30,30,32,32,33,33,34,34,35,35,37,37,38,38,39,39],"right_children":[2,4,6,8,10,-1,12,14,16,18,20,22,24,26,28,30,32,34,-1,36,38,40,-1,-1,-1,-1,-1,42,-1,-1,44,-1,46,48,50,52,-1,54,56,58,-1,-1,-1,-1,-1,-1,-1,-1,-1,-1,-1,-1,-1,-1,-1,-1,-1,-1,-1],"split_conditions":[1E0,1E0,1E0,1E0,1E0,-2.0513466E-2,1E0,1E0,1E0,1E0,1E0,1E0,1E0,1E0,1E0,1E0,1E0,1E0,-6.300627E-2,1E0,1E0,1E0,-5.848762E-2,-3.5968196E-2,-6.337478E-2,5.696544E-2,-1.7989362E-3,1E0,3.7602954E-2,2.535053E-2,1E0,-1.0598087E-2,1E0,1E0,1E0,1E0,1.34205315E-2,1E0,1E0,1E0,-1.4511232E-2,-2.7532712E-2,1.3084694E-2,-6.5270546E-3,-3.3731442E-2,5.051593E-2,1.897244E-2,9.750482E-3,3.716602E-2,4.2153068E-2,5.80864E-3,4.66972E-2,2.0841261E-2,4.237293E-3,-6.265755E-2,-2.3845458E-2,1.2853846E-2,-4.733671E-2,-2.857926E-2],"split_indices":[2,22,63,9,37,0,61,17,49,3,17,56,37,37,7,63,85,9,0,61,45,76,0,0,0,0,0,25,0,0,37,0,29,10,65,57,0,35,83,89,0,0,0,0,0,0,0,0,0,0,0,0,0,0,0,0,0,0,0],"split_type":[0,0,0,0,0,0,0,0,0,0,0,0,0,0,0,0,0,0,0,0,0,0,0,0,0,0,0,0,0,0,0,0,0,0,0,0,0,0,0,0,0,0,0,0,0,0,0,0,0,0,0,0,0,0,0,0,0,0,0],"sum_hessian":[1.7366481E3,1.6354265E3,1.01221634E2,4.1117252E2,1.2242539E3,6.288058E0,9.493358E1,3.5547318E2,5.5699333E1,4.9043384E2,7.338201E2,5.1258503E1,4.367508E1,1.3874032E1,3.4159915E2,2.6179096E1,2.9520239E1,4.8132007E2,9.11377E0,5.0614536E1,6.8320557E2,3.5280796E1,1.5977706E1,7.879531E0,3.5795547E1,5.760395E0,8.113637E0,3.329632E2,8.635947E0,6.6040316E0,1.9575064E1,6.050117E0,2.3470121E1,3.5946735E2,1.218527E2,4.162542E1,8.989117E0,5.3927655E2,1.4392906E2,3.0012884E1,5.2679105E0,3.1198727E2,2.0975904E1,7.0048256E0,1.2570239E1,1.3084627E1,1.0385494E1,2.0853659E2,1.5093077E2,1.1521673E2,6.635972E0,3.1132524E1,1.0492895E1,5.303681E2,8.908439E0,1.305185E2,1.34105625E1,2.2788244E1,7.2246394E0],"tree_param":{"num_deleted":"0","num_feature":"94","num_nodes":"59","size_leaf_vector":"1"}},{"base_weights":[-6.515286E-3,5.47626E-2,-9.9888295E-1,7.802482E-1,-5.4976973E-3,-2.1106161E-2,-1.0281644E0,8.307567E-1,4.935854E-3,-3.4210497E-1,1.15222335E-1,-8.930041E-1,-1.1622993E0,7.1501094E-1,1.0918193E0,-4.7320876E-1,2.47227E-1,1.940624E-2,5.042633E-1,-7.977451E-1,-5.9694834E-2,-3.8006674E-2,-6.1887514E-2,8.007425E-1,2.9443496E-1,3.6627725E-2,5.948746E-2,-5.272181E-1,1.4188579E-1,3.479326E-1,-1.6030148E-2,4.872165E-2,-6.2854014E-2,-1.5013991E-1,6.0353196E-1,-5.4162997E-1,-4.5087084E-2,3.4617823E-2,5.038501E-2,3.2576747E-2,-1.9347789E-3,-2.6833238E-3,-2.89536E-2,3.1086856E-2,-1.5673418E-2,2.442169E-2,-8.027034E-3,-1.0954759E-2,8.245057E-3,-2.4242235E-2,4.2101666E-3,2.4211463E-2,4.198468E-2,8.409858E-3,-4.855882E-2],"categories":[],"categories_nodes":[],"categories_segments":[],"categories_sizes":[],"default_left":[0,0,0,0,0,0,0,0,0,0,0,0,0,0,0,0,0,0,0,0,0,0,0,0,0,0,0,0,0,0,0,0,0,0,0,0,0,0,0,0,0,0,0,0,0,0,0,0,0,0,0,0,0,0,0],"id":15,"left_children":[1,3,5,7,9,-1,11,13,-1,15,17,19,21,23,25,27,29,31,33,35,-1,-1,-1,37,39,-1,-1,41,43,45,-1,47,-1,49,51,53,-1,-1,-1,-1,-1,-1,-1,-1,-1,-1,-1,-1,-1,-1,-1,-1,-1,-1,-1],"loss_changes":[1.0524633E2,7.127246E1,1.265892E0,4.2218475E0,6.1242237E1,0E0,6.861191E-1,2.7325745E0,0E0,3.085468E1,4.1341755E1,5.2894974E-1,4.0680695E-1,2.7731705E0,3.1820297E-1,1.08973465E1,4.28899E0,3.340841E1,1.4329002E1,6.374264E-1,0E0,0E0,0E0,8.4420776E-1,1.894318E0,0E0,0E0,7.3279953E0,6.1128535E0,4.5454955E0,0E0,2.7171305E1,0E0,2.3680065E0,4.960991E0,4.648758E0,0E0,0E0,0E0,0E0,0E0,0E0,0E0,0E0,0E0,0E0,0E0,0E0,0E0,0E0,0E0,0E0,0E0,0E0,0E0],"parents":[2147483647,0,0,1,1,2,2,3,3,4,4,6,6,7,7,9,9,10,10,11,11,12,12,13,13,14,14,15,15,16,16,17,17,18,18,19,19,23,23,24,24,27,27,28,28,29,29,31,31,33,33,34,34,35,35],"right_children":[2,4,6,8,10,-1,12,14,-1,16,18,20,22,24,26,28,30,32,34,36,-1,-1,-1,38,40,-1,-1,42,44,46,-1,48,-1,50,52,54,-1,-1,-1,-1,-1,-1,-1,-1,-1,-1,-1,-1,-1,-1,-1,-1,-1,-1,-1],"split_conditions":[1E0,1E0,1E0,1E0,1E0,-2.1106161E-2,1E0,1E0,4.935854E-3,1E0,1E0,1E0,1E0,1E0,1E0,1E0,1E0,1E0,1E0,1E0,-5.9694834E-2,-3.8006674E-2,-6.1887514E-2,1E0,1E0,3.6627725E-2,5.948746E-2,1E0,1E0,1E0,-1.6030148E-2,1E0,-6.2854014E-2,1E0,1E0,1E0,-4.5087084E-2,3.4617823E-2,5.038501E-2,3.2576747E-2,-1.9347789E-3,-2.6833238E-3,-2.89536E-2,3.1086856E-2,-1.5673418E-2,2.442169E-2,-8.027034E-3,-1.0954759E-2,8.245057E-3,-2.4242235E-2,4.2101666E-3,2.4211463E-2,4.198468E-2,8.409858E-3,-4.855882E-2],"split_indices":[2,17,63,55,22,0,61,49,0,24,9,69,37,61,85,25,0,3,91,90,0,0,0,59,37,0,0,28,90,58,0,51,0,90,48,50,0,0,0,0,0,0,0,0,0,0,0,0,0,0,0,0,0,0,0],"split_type":[0,0,0,0,0,0,0,0,0,0,0,0,0,0,0,0,0,0,0,0,0,0,0,0,0,0,0,0,0,0,0,0,0,0,0,0,0,0,0,0,0,0,0,0,0,0,0,0,0,0,0,0,0,0,0],"sum_hessian":[1.7288354E3,1.6291798E3,9.965569E1,1.2402848E2,1.5051514E3,5.5597987E0,9.40959E1,1.15267044E2,8.761439E0,3.9682855E2,1.1083228E3,5.068298E1,4.3412918E1,8.245035E1,3.2816692E1,3.2477548E2,7.205306E1,8.9014154E2,2.1818124E2,4.1268974E1,9.414004E0,8.607606E0,3.4805313E1,6.773841E1,1.4711939E1,8.845726E0,2.3970968E1,2.9869128E2,2.6084194E1,6.152819E1,1.052487E1,8.7109796E2,1.9043545E1,2.866988E1,1.8951135E2,1.3710905E1,2.7558071E1,4.7308056E1,2.0430351E1,6.6392193E0,8.07272E0,2.9679586E1,2.690117E2,1.2522555E1,1.356164E1,4.8238388E1,1.32898035E1,2.6328586E2,6.0781213E2,1.1366511E1,1.7303368E1,1.2793325E2,6.1578106E1,5.3984222E0,8.312483E0],"tree_param":{"num_deleted":"0","num_feature":"94","num_nodes":"55","size_leaf_vector":"1"}},{"base_weights":[4.771666E-3,6.5227345E-2,-9.602945E-1,-2.8753567E-1,1.8568534E-1,-1.0059165E0,-6.1329254E-3,-3.554212E-1,1.6336806E-1,4.2977795E-1,2.5173312E-2,-8.47687E-1,-1.1671412E0,-3.8823503E-1,5.810762E-1,4.0010445E-2,3.24797E-2,4.503983E-1,-6.045825E-2,4.9081397E-1,-4.5342352E-2,-9.113053E-1,-1.9149063E-2,-6.0615636E-2,-3.428214E-2,2.4426974E-2,-4.1507477E-1,4.911102E-2,3.9050411E-3,-8.009424E-2,3.3153836E-2,9.424986E-1,3.8003135E-1,5.492209E-1,-1.4915635E-2,-1.9564973E-2,-5.6831893E-2,-9.743856E-1,-2.4243323E-2,-2.2739727E-2,8.296702E-3,9.483346E-3,-2.4946392E-2,5.041353E-2,2.602447E-2,1.3472742E-2,3.4645837E-2,3.9069675E-2,1.5945708E-2,1.6407038E-4,-6.412672E-2,-4.0482875E-2,-6.3787505E-2],"categories":[],"categories_nodes":[],"categories_segments":[],"categories_sizes":[],"default_left":[0,0,0,0,0,0,0,0,0,0,0,0,0,0,0,0,0,0,0,0,0,0,0,0,0,0,0,0,0,0,0,0,0,0,0,0,0,0,0,0,0,0,0,0,0,0,0,0,0,0,0,0,0],"id":16,"left_children":[1,3,5,7,9,11,-1,13,15,17,19,21,23,25,27,29,-1,31,-1,33,35,37,-1,-1,-1,-1,39,-1,-1,41,-1,43,45,47,-1,49,-1,51,-1,-1,-1,-1,-1,-1,-1,-1,-1,-1,-1,-1,-1,-1,-1],"loss_changes":[9.9661995E1,6.835742E1,3.7248383E0,1.259457E1,4.6960094E1,1.4432907E0,0E0,1.11741295E1,3.2295456E0,1.661576E1,2.380514E1,1.1818123E0,1.3838959E-1,8.3172035E0,2.4376125E0,3.3726478E0,0E0,1.5929245E1,0E0,4.5584316E0,1.7699247E1,7.3321915E-1,0E0,0E0,0E0,0E0,7.8091583E0,0E0,0E0,4.3973804E0,0E0,1.0897522E0,1.4108788E1,4.516575E0,0E0,1.7791409E1,0E0,8.562126E-1,0E0,0E0,0E0,0E0,0E0,0E0,0E0,0E0,0E0,0E0,0E0,0E0,0E0,0E0,0E0],"parents":[2147483647,0,0,1,1,2,2,3,3,4,4,5,5,7,7,8,8,9,9,10,10,11,11,12,12,13,13,14,14,15,15,17,17,19,19,20,20,21,21,26,26,29,29,31,31,32,32,33,33,35,35,37,37],"right_children":[2,4,6,8,10,12,-1,14,16,18,20,22,24,26,28,30,-1,32,-1,34,36,38,-1,-1,-1,-1,40,-1,-1,42,-1,44,46,48,-1,50,-1,52,-1,-1,-1,-1,-1,-1,-1,-1,-1,-1,-1,-1,-1,-1,-1],"split_conditions":[1E0,1E0,1E0,1E0,1E0,1E0,-6.1329254E-3,1E0,1E0,1E0,1E0,1E0,1E0,1E0,1E0,1E0,3.24797E-2,1E0,-6.045825E-2,1E0,1E0,1E0,-1.9149063E-2,-6.0615636E-2,-3.428214E-2,2.4426974E-2,1E0,4.911102E-2,3.9050411E-3,1E0,3.3153836E-2,1E0,1E0,1E0,-1.4915635E-2,1E0,-5.6831893E-2,1E0,-2.4243323E-2,-2.2739727E-2,8.296702E-3,9.483346E-3,-2.4946392E-2,5.041353E-2,2.602447E-2,1.3472742E-2,3.4645837E-2,3.9069675E-2,1.5945708E-2,1.6407038E-4,-6.412672E-2,-4.0482875E-2,-6.3787505E-2],"split_indices":[2,22,67,9,37,61,0,7,46,8,28,93,41,17,37,69,0,17,0,45,5,84,0,0,0,0,25,0,0,50,0,83,9,9,0,35,0,56,0,0,0,0,0,0,0,0,0,0,0,0,0,0,0],"split_type":[0,0,0,0,0,0,0,0,0,0,0,0,0,0,0,0,0,0,0,0,0,0,0,0,0,0,0,0,0,0,0,0,0,0,0,0,0,0,0,0,0,0,0,0,0,0,0,0,0,0,0,0,0],"sum_hessian":[1.7061136E3,1.6064137E3,9.969989E1,4.0855817E2,1.1978556E3,9.4359665E1,5.3402205E0,3.5528085E2,5.3277317E1,4.745397E2,7.2331586E2,5.078043E1,4.357924E1,3.4381924E2,1.1461608E1,4.3359188E1,9.918126E0,4.6935962E2,5.180057E0,9.434711E1,6.2896875E2,4.3820377E1,6.9600534E0,3.845392E1,5.1253204E0,9.70139E0,3.3411783E2,5.8461976E0,5.6154103E0,3.7082478E1,6.2767115E0,5.7168274E1,4.1219135E2,8.8128334E1,6.218774E0,6.154492E2,1.3519535E1,3.705425E1,6.766127E0,3.1294135E2,2.1176512E1,2.2887997E1,1.4194481E1,4.8257862E1,8.910412E0,3.0593307E2,1.0625827E2,4.2694805E1,4.5433533E1,6.054936E2,9.955624E0,2.6342096E1,1.07121525E1],"tree_param":{"num_deleted":"0","num_feature":"94","num_nodes":"53","size_leaf_vector":"1"}},{"base_weights":[6.5548965E-3,6.3549325E-2,-9.662884E-1,-2.9680103E-1,1.8648405E-1,-1.0028671E0,-1.68899E-2,-4.2118636E-1,2.1900508E-1,6.9567405E-2,4.7632986E-1,-8.404353E-1,-5.8053266E-2,-4.7882107E-1,2.4042308E-1,2.3292726E-2,5.9828264E-1,5.115094E-1,-2.2805886E-2,3.556376E-1,7.6489925E-1,-2.5471095E-2,-9.225127E-1,-5.23051E-1,-9.413466E-2,5.187701E-1,-1.5190703E-2,-8.86704E-2,1.693258E-2,5.056082E-2,4.1477767E-1,5.562964E-1,-2.8548181E-2,1.974219E-3,-7.4578114E-2,3.033533E-1,8.38353E-1,6.808604E-1,6.014798E-2,-1.030782E0,-2.2982644E-2,-2.974012E-2,-1.35192145E-2,-1.1529823E-2,1.5521104E-2,4.9441833E-2,2.6592908E-3,2.2627378E-3,-3.0005118E-2,4.3316815E-2,1.0201073E-2,1.2967797E-2,3.1265676E-2,-2.2349514E-3,2.933303E-2,7.2849714E-3,2.344361E-2,4.9817685E-2,1.7396899E-2,4.445484E-2,2.3217395E-2,-2.9762445E-2,-5.5535316E-2],"categories":[],"categories_nodes":[],"categories_segments":[],"categories_sizes":[],"default_left":[0,0,0,0,0,0,0,0,0,0,0,0,0,0,0,0,0,0,0,0,0,0,0,0,0,0,0,0,0,0,0,0,0,0,0,0,0,0,0,0,0,0,0,0,0,0,0,0,0,0,0,0,0,0,0,0,0,0,0,0,0,0,0],"id":17,"left_children":[1,3,5,7,9,11,-1,13,15,17,19,21,-1,23,25,27,29,31,33,35,37,-1,39,41,43,45,-1,47,-1,-1,49,51,-1,53,-1,55,57,59,-1,61,-1,-1,-1,-1,-1,-1,-1,-1,-1,-1,-1,-1,-1,-1,-1,-1,-1,-1,-1,-1,-1,-1,-1],"loss_changes":[9.491328E1,7.168557E1,1.8391571E0,2.6506035E1,4.0844223E1,1.3116531E0,0E0,1.2776627E1,5.9724846E0,3.5148994E1,1.1797508E1,8.217201E-1,0E0,5.1533966E0,4.289173E0,1.9450843E0,1.6575708E0,7.5336685E0,2.5948391E1,5.959831E0,2.9112625E0,0E0,1.3735428E0,4.8069763E0,1.8796461E0,3.9774036E0,0E0,2.82302E0,0E0,0E0,1.7905996E0,2.7774086E0,0E0,1.9184277E1,0E0,5.7696514E0,1.4738846E0,3.5241356E0,0E0,3.5077477E-1,0E0,0E0,0E0,0E0,0E0,0E0,0E0,0E0,0E0,0E0,0E0,0E0,0E0,0E0,0E0,0E0,0E0,0E0,0E0,0E0,0E0,0E0,0E0],"parents":[2147483647,0,0,1,1,2,2,3,3,4,4,5,5,7,7,8,8,9,9,10,10,11,11,13,13,14,14,15,15,16,16,17,17,18,18,19,19,20,20,22,22,23,23,24,24,25,25,27,27,30,30,31,31,33,33,35,35,36,36,37,37,39,39],"right_children":[2,4,6,8,10,12,-1,14,16,18,20,22,-1,24,26,28,30,32,34,36,38,-1,40,42,44,46,-1,48,-1,-1,50,52,-1,54,-1,56,58,60,-1,62,-1,-1,-1,-1,-1,-1,-1,-1,-1,-1,-1,-1,-1,-1,-1,-1,-1,-1,-1,-1,-1,-1,-1],"split_conditions":[1E0,1E0,1E0,1E0,1E0,1E0,-1.68899E-2,1E0,1E0,1E0,1E0,1E0,-5.8053266E-2,1E0,1E0,1E0,1E0,1E0,1E0,1E0,1E0,-2.5471095E-2,1E0,1E0,1E0,1E0,-1.5190703E-2,1E0,1.693258E-2,5.056082E-2,1E0,1E0,-2.8548181E-2,1E0,-7.4578114E-2,1E0,1E0,1E0,6.014798E-2,1E0,-2.2982644E-2,-2.974012E-2,-1.35192145E-2,-1.1529823E-2,1.5521104E-2,4.9441833E-2,2.6592908E-3,2.2627378E-3,-3.0005118E-2,4.3316815E-2,1.0201073E-2,1.2967797E-2,3.1265676E-2,-2.2349514E-3,2.933303E-2,7.2849714E-3,2.344361E-2,4.9817685E-2,1.7396899E-2,4.445484E-2,2.3217395E-2,-2.9762445E-2,-5.5535316E-2],"split_indices":[2,22,67,24,10,50,0,25,10,28,41,87,0,60,73,71,90,92,4,18,46,0,71,59,71,90,0,0,0,0,81,63,0,7,0,81,50,50,0,44,0,0,0,0,0,0,0,0,0,0,0,0,0,0,0,0,0,0,0,0,0,0,0],"split_type":[0,0,0,0,0,0,0,0,0,0,0,0,0,0,0,0,0,0,0,0,0,0,0,0,0,0,0,0,0,0,0,0,0,0,0,0,0,0,0,0,0,0,0,0,0,0,0,0,0,0,0,0,0,0,0,0,0,0,0,0,0,0,0],"sum_hessian":[1.7096871E3,1.6159507E3,9.373647E1,4.106946E2,1.2052561E3,8.801807E1,5.7184052E0,3.3104694E2,7.9647675E1,8.597102E2,3.4554587E2,4.6542553E1,4.147551E1,3.047735E2,2.6273426E1,5.323771E1,2.6409966E1,1.4784364E2,7.118666E2,2.4521762E2,1.0032823E2,1.0679464E1,3.586309E1,2.7302258E2,3.1750902E1,1.7413952E1,8.859473E0,3.981932E1,1.3418386E1,6.7377386E0,1.9672228E1,1.4243648E2,5.407178E0,7.0103766E2,1.0828893E1,2.2272235E2,2.2495268E1,8.6322174E1,1.4006062E1,2.8070114E1,7.7929754E0,2.1158374E2,6.143885E1,2.4063875E1,7.687028E0,8.106027E0,9.307926E0,3.227833E1,7.5409904E0,5.2700987E0,1.4402129E1,2.775985E1,1.1467662E2,6.500688E2,5.096891E1,1.1503437E2,1.0768798E2,1.6233534E1,6.261734E0,4.241858E1,4.3903595E1,5.6622653E0,2.2407848E1],"tree_param":{"num_deleted":"0","num_feature":"94","num_nodes":"63","size_leaf_vector":"1"}},{"base_weights":[-4.1514132E-2,1.5979808E-2,-1.0139401E0,-3.218455E-1,1.2675138E-1,-1.5880706E-2,-1.0580461E0,-4.5254976E-1,1.9850889E-1,3.788698E-1,-3.7702836E-2,-1.0834533E0,-2.6461957E-2,-5.0413525E-1,1.3811994E-1,4.8057005E-1,3.5339987E-3,2.664268E-1,6.293684E-1,-3.5071856E-1,7.7109076E-2,-5.7424344E-2,-4.1447427E-2,-5.5088264E-1,-1.2517817E-1,3.428122E-2,-2.1949679E-1,-6.2140677E-4,6.809706E-1,8.713672E-2,-1.4567054E-2,4.847582E-2,6.5081686E-1,5.414879E-1,5.7036992E-2,-4.1885078E-1,7.404521E-2,1.061238E-1,-6.0134597E-2,-2.8633574E-2,1.4149307E-2,3.7752297E-2,-2.1817598E-2,1.5678568E-2,-3.2815095E-2,2.7253238E-2,4.354328E-2,-5.5803003E-4,2.3376143E-2,-2.2628452E-3,1.8274067E-2,3.551605E-2,1.9453898E-3,3.0043213E-2,-5.618318E-3,-2.9264828E-2,-1.2632087E-2,1.7832484E-2,-1.846777E-2,6.4576864E-3,-5.9452116E-2],"categories":[],"categories_nodes":[],"categories_segments":[],"categories_sizes":[],"default_left":[0,0,0,0,0,0,0,0,0,0,0,0,0,0,0,0,0,0,0,0,0,0,0,0,0,0,0,0,0,0,0,0,0,0,0,0,0,0,0,0,0,0,0,0,0,0,0,0,0,0,0,0,0,0,0,0,0,0,0,0,0],"id":18,"left_children":[1,3,5,7,9,-1,11,13,15,17,19,21,-1,23,25,27,29,31,33,35,37,-1,-1,39,41,-1,43,-1,45,47,-1,49,51,53,-1,55,57,59,-1,-1,-1,-1,-1,-1,-1,-1,-1,-1,-1,-1,-1,-1,-1,-1,-1,-1,-1,-1,-1,-1,-1],"loss_changes":[9.489346E1,6.0037006E1,2.573883E0,2.7034588E1,5.01038E1,0E0,6.1800385E-1,9.726913E0,4.4105086E0,1.3268372E1,2.6336031E1,4.325714E-1,0E0,5.09861E0,5.2885246E0,3.2474384E0,1.2196792E0,2.7696218E1,5.9907E0,5.721735E0,2.00469E1,0E0,0E0,4.874672E0,9.457652E0,0E0,4.078269E0,0E0,1.2734222E-1,1.4452904E0,0E0,6.324483E0,4.329914E0,5.0132065E0,0E0,4.544281E0,3.6441753E0,1.5826664E1,0E0,0E0,0E0,0E0,0E0,0E0,0E0,0E0,0E0,0E0,0E0,0E0,0E0,0E0,0E0,0E0,0E0,0E0,0E0,0E0,0E0,0E0,0E0],"parents":[2147483647,0,0,1,1,2,2,3,3,4,4,6,6,7,7,8,8,9,9,10,10,11,11,13,13,14,14,15,15,16,16,17,17,18,18,19,19,20,20,23,23,24,24,26,26,28,28,29,29,31,31,32,32,33,33,35,35,36,36,37,37],"right_children":[2,4,6,8,10,-1,12,14,16,18,20,22,-1,24,26,28,30,32,34,36,38,-1,-1,40,42,-1,44,-1,46,48,-1,50,52,54,-1,56,58,60,-1,-1,-1,-1,-1,-1,-1,-1,-1,-1,-1,-1,-1,-1,-1,-1,-1,-1,-1,-1,-1,-1,-1],"split_conditions":[1E0,1E0,1E0,1E0,1E0,-1.5880706E-2,1E0,1E0,1E0,1E0,1E0,1E0,-2.6461957E-2,1E0,1E0,1E0,1E0,1E0,1E0,1E0,1E0,-5.7424344E-2,-4.1447427E-2,1E0,1E0,3.428122E-2,1E0,-6.2140677E-4,1E0,1E0,-1.4567054E-2,1E0,1E0,1E0,5.7036992E-2,1E0,1E0,1E0,-6.0134597E-2,-2.8633574E-2,1.4149307E-2,3.7752297E-2,-2.1817598E-2,1.5678568E-2,-3.2815095E-2,2.7253238E-2,4.354328E-2,-5.5803003E-4,2.3376143E-2,-2.2628452E-3,1.8274067E-2,3.551605E-2,1.9453898E-3,3.0043213E-2,-5.618318E-3,-2.9264828E-2,-1.2632087E-2,1.7832484E-2,-1.846777E-2,6.4576864E-3,-5.9452116E-2],"split_indices":[2,22,63,24,37,0,67,25,37,10,51,48,0,9,37,44,75,9,46,10,5,0,0,64,63,0,50,0,73,71,0,86,75,65,0,32,50,35,0,0,0,0,0,0,0,0,0,0,0,0,0,0,0,0,0,0,0,0,0,0,0],"split_type":[0,0,0,0,0,0,0,0,0,0,0,0,0,0,0,0,0,0,0,0,0,0,0,0,0,0,0,0,0,0,0,0,0,0,0,0,0,0,0,0,0,0,0,0,0,0,0,0,0,0,0,0,0,0,0,0,0,0,0,0,0],"sum_hessian":[1.6960065E3,1.6022577E3,9.3748695E1,3.9517334E2,1.2070844E3,6.0729427E0,8.767575E1,3.1594388E2,7.922947E1,4.760171E2,7.310673E2,8.2655594E1,5.0201554E0,2.907022E2,2.5241661E1,3.17841E1,4.744537E1,3.299664E2,1.4605067E2,1.9563797E2,5.354293E2,6.3035526E1,1.9620071E1,2.5837582E2,3.2326385E1,9.6106825E0,1.5630978E1,9.457075E0,2.2327024E1,3.7513947E1,9.931424E0,2.1129005E2,1.1867635E2,1.2638924E2,1.9661436E1,1.6860725E2,2.7030718E1,5.244563E2,1.0973017E1,2.5210167E2,6.274142E0,8.070563E0,2.4255823E1,7.166838E0,8.46414E0,1.5269296E1,7.0577292E0,3.0581818E1,6.9321275E0,1.6373412E2,4.755594E1,1.0801206E2,1.0664297E1,1.1594165E2,1.0447588E1,8.2983795E1,8.562345E1,1.6628242E1,1.0402476E1,5.161782E2,8.278115E0],"tree_param":{"num_deleted":"0","num_feature":"94","num_nodes":"61","size_leaf_vector":"1"}},{"base_weights":[1.2678552E-2,6.2945604E-2,-8.8116455E-1,7.275561E-1,9.048578E-3,-9.4257146E-1,-2.413313E-2,6.67972E-1,6.280259E-2,5.5655994E-2,-5.9570634E-1,-9.822731E-1,-2.3990009E-2,7.172047E-1,1.8572966E-3,2.9132E-1,-9.327201E-2,-8.4673095E-1,-1.8308546E-1,-1.029579E0,-2.7563939E-2,7.5587225E-1,4.577737E-3,3.2406965E-1,-6.217119E-2,-1.6178427E-2,-6.17039E-1,-6.8678194E-1,-6.224161E-2,-3.0457968E-1,2.0383736E-2,-1.0748875E0,-3.0714054E-2,3.213279E-2,4.6108022E-2,1.7685961E-2,-6.322997E-2,-1.907904E-2,2.8932134E-3,-3.4744453E-2,-8.921506E-3,-9.3907295E-3,-3.980721E-2,3.9816326E-3,-2.5162626E-2,-5.6776907E-2,-3.1688515E-2],"categories":[],"categories_nodes":[],"categories_segments":[],"categories_sizes":[],"default_left":[0,0,0,0,0,0,0,0,0,0,0,0,0,0,0,0,0,0,0,0,0,0,0,0,0,0,0,0,0,0,0,0,0,0,0,0,0,0,0,0,0,0,0,0,0,0,0],"id":19,"left_children":[1,3,5,7,9,11,-1,13,-1,15,17,19,-1,21,-1,23,25,27,29,31,-1,33,-1,35,-1,37,39,41,-1,43,-1,45,-1,-1,-1,-1,-1,-1,-1,-1,-1,-1,-1,-1,-1,-1,-1],"loss_changes":[7.494139E1,5.6549973E1,1.718216E0,2.8901443E0,4.1226044E1,9.231796E-1,0E0,3.3449593E0,0E0,4.7681988E1,1.0685307E1,8.3815E-1,0E0,2.3656845E0,0E0,2.684262E1,3.3616524E1,3.2709808E0,3.0570753E0,4.8706055E-1,0E0,1.1893196E0,0E0,2.4744919E1,0E0,1.9689949E1,3.5235252E0,2.494543E0,0E0,2.670889E0,0E0,7.155266E-1,0E0,0E0,0E0,0E0,0E0,0E0,0E0,0E0,0E0,0E0,0E0,0E0,0E0,0E0,0E0],"parents":[2147483647,0,0,1,1,2,2,3,3,4,4,5,5,7,7,9,9,10,10,11,11,13,13,15,15,16,16,17,17,18,18,19,19,21,21,23,23,25,25,26,26,27,27,29,29,31,31],"right_children":[2,4,6,8,10,12,-1,14,-1,16,18,20,-1,22,-1,24,26,28,30,32,-1,34,-1,36,-1,38,40,42,-1,44,-1,46,-1,-1,-1,-1,-1,-1,-1,-1,-1,-1,-1,-1,-1,-1,-1],"split_conditions":[1E0,1E0,1E0,1E0,1E0,1E0,-2.413313E-2,1E0,6.280259E-2,1E0,1E0,1E0,-2.3990009E-2,1E0,1.8572966E-3,1E0,1E0,1E0,1E0,1E0,-2.7563939E-2,1E0,4.577737E-3,1E0,-6.217119E-2,1E0,1E0,1E0,-6.224161E-2,1E0,2.0383736E-2,1E0,-3.0714054E-2,3.213279E-2,4.6108022E-2,1.7685961E-2,-6.322997E-2,-1.907904E-2,2.8932134E-3,-3.4744453E-2,-8.921506E-3,-9.3907295E-3,-3.980721E-2,3.9816326E-3,-2.5162626E-2,-5.6776907E-2,-3.1688515E-2],"split_indices":[2,17,84,75,23,57,0,24,0,37,37,93,0,1,0,3,21,39,59,58,0,41,0,8,0,34,59,41,0,90,0,41,0,0,0,0,0,0,0,0,0,0,0,0,0,0,0],"split_type":[0,0,0,0,0,0,0,0,0,0,0,0,0,0,0,0,0,0,0,0,0,0,0,0,0,0,0,0,0,0,0,0,0,0,0,0,0,0,0,0,0,0,0,0,0,0,0],"sum_hessian":[1.6656925E3,1.5778865E3,8.780602E1,1.1742359E2,1.4604629E3,7.489919E1,1.2906827E1,1.0756079E2,9.862801E0,1.3568043E3,1.0365859E2,6.7947334E1,6.951861E0,9.9646935E1,7.913853E0,5.250337E2,8.317706E2,6.3795494E1,3.98631E1,5.997557E1,7.9717665E0,9.365082E1,5.9961205E0,5.1483655E2,1.0197166E1,7.2594867E2,1.0582193E2,4.7454414E1,1.634108E1,3.3465164E1,6.3979325E0,5.264395E1,7.3316193E0,5.861072E1,3.5040096E1,5.061672E2,8.669317E0,1.2161625E2,6.0433246E2,8.9374306E1,1.6447624E1,9.019616E0,3.84348E1,1.16106205E1,2.1854544E1,4.489672E1,7.747228E0],"tree_param":{"num_deleted":"0","num_feature":"94","num_nodes":"47","size_leaf_vector":"1"}},{"base_weights":[6.4916736E-3,5.398755E-2,-8.5271966E-1,-2.9194987E-1,1.7042433E-1,-8.998425E-1,-6.2892274E-3,-4.213128E-1,2.4934714E-1,1.9395398E-1,-6.6899754E-2,-9.649825E-1,-2.3001358E-2,-4.732584E-1,-1.9275816E-2,3.4071225E-1,-1.5059868E-2,4.2429963E-1,4.741096E-2,-1.0056119E0,-2.3242801E-2,-5.4186845E-1,-2.3514707E-1,-2.7088774E-2,1.2120423E-1,2.2460783E-1,4.381743E-2,8.905811E-1,3.5970086E-1,1.4253072E-1,-2.1555719E-1,-1.0494392E0,-2.837952E-2,-1.2762425E-2,-3.1595804E-2,-1.696245E-3,-4.5527942E-2,5.179552E-4,2.1966148E-2,-1.5158434E-2,1.744466E-2,4.723085E-2,2.6476363E-2,1.2857485E-2,3.2631047E-2,-3.0489657E-2,9.312126E-3,-1.4674328E-2,1.336153E-2,-5.6260277E-2,-4.090744E-2],"categories":[],"categories_nodes":[],"categories_segments":[],"categories_sizes":[],"default_left":[0,0,0,0,0,0,0,0,0,0,0,0,0,0,0,0,0,0,0,0,0,0,0,0,0,0,0,0,0,0,0,0,0,0,0,0,0,0,0,0,0,0,0,0,0,0,0,0,0,0,0],"id":20,"left_children":[1,3,5,7,9,11,-1,13,15,17,-1,19,-1,21,23,25,-1,27,29,31,-1,33,35,-1,37,39,-1,41,43,45,47,49,-1,-1,-1,-1,-1,-1,-1,-1,-1,-1,-1,-1,-1,-1,-1,-1,-1,-1,-1],"loss_changes":[6.877351E1,6.437048E1,2.9108276E0,2.8289085E1,4.268572E1,1.9266052E0,0E0,6.782963E0,4.039373E0,3.9739464E1,0E0,9.784317E-1,0E0,4.5771255E0,2.8736622E0,4.0068274E0,0E0,1.347084E1,1.806572E1,6.512451E-1,0E0,5.5887756E0,8.963857E0,0E0,1.0873973E0,3.8379412E0,0E0,5.735321E-1,1.1962677E1,1.7545786E1,7.29918E0,9.3444824E-2,0E0,0E0,0E0,0E0,0E0,0E0,0E0,0E0,0E0,0E0,0E0,0E0,0E0,0E0,0E0,0E0,0E0,0E0,0E0],"parents":[2147483647,0,0,1,1,2,2,3,3,4,4,5,5,7,7,8,8,9,9,11,11,13,13,14,14,15,15,17,17,18,18,19,19,21,21,22,22,24,24,25,25,27,27,28,28,29,29,30,30,31,31],"right_children":[2,4,6,8,10,12,-1,14,16,18,-1,20,-1,22,24,26,-1,28,30,32,-1,34,36,-1,38,40,-1,42,44,46,48,50,-1,-1,-1,-1,-1,-1,-1,-1,-1,-1,-1,-1,-1,-1,-1,-1,-1,-1,-1],"split_conditions":[1E0,1E0,1E0,1E0,1E0,1E0,-6.2892274E-3,1E0,1E0,1E0,-6.6899754E-2,1E0,-2.3001358E-2,1E0,1E0,1E0,-1.5059868E-2,1E0,1E0,1E0,-2.3242801E-2,1E0,1E0,-2.7088774E-2,1E0,1E0,4.381743E-2,1E0,1E0,1E0,1E0,1E0,-2.837952E-2,-1.2762425E-2,-3.1595804E-2,-1.696245E-3,-4.5527942E-2,5.179552E-4,2.1966148E-2,-1.5158434E-2,1.744466E-2,4.723085E-2,2.6476363E-2,1.2857485E-2,3.2631047E-2,-3.0489657E-2,9.312126E-3,-1.4674328E-2,1.336153E-2,-5.6260277E-2,-4.090744E-2],"split_indices":[2,22,67,24,3,84,0,60,0,37,0,93,0,71,51,57,0,17,53,76,0,63,57,0,71,91,0,71,9,34,10,89,0,0,0,0,0,0,0,0,0,0,0,0,0,0,0,0,0,0,0],"split_type":[0,0,0,0,0,0,0,0,0,0,0,0,0,0,0,0,0,0,0,0,0,0,0,0,0,0,0,0,0,0,0,0,0,0,0,0,0,0,0,0,0,0,0,0,0,0,0,0,0,0,0],"sum_hessian":[1.6831255E3,1.5958467E3,8.727878E1,4.014924E2,1.1943542E3,8.174207E1,5.5367026E0,3.2422784E2,7.7264565E1,1.1768679E3,1.7486399E1,7.0157196E1,1.1584881E1,2.8697214E2,3.7255688E1,6.659413E1,1.0670433E1,4.5685645E2,7.200115E2,6.395119E1,6.2060018E0,2.2178944E2,6.518271E1,7.2888885E0,2.9966799E1,5.5897198E1,1.0696935E1,5.4035496E1,4.0282095E2,5.290894E2,1.9092206E2,5.6865513E1,7.085677E0,5.393854E1,1.6785089E2,5.1029858E1,1.4152851E1,2.2989063E1,6.9777346E0,1.0379876E1,4.551732E1,4.5595345E1,8.440153E0,2.9975482E2,1.03066124E2,2.8342154E1,5.0074725E2,1.64725E2,2.6197054E1,3.99227E1,1.6942816E1],"tree_param":{"num_deleted":"0","num_feature":"94","num_nodes":"51","size_leaf_vector":"1"}},{"base_weights":[-7.706117E-3,4.5555077E-2,-9.352047E-1,-2.6261732E-1,1.4870097E-1,-9.66316E-1,-6.5625995E-1,-2.8979966E-1,3.3255417E-2,3.68236E-1,6.2388047E-3,-5.0504845E-2,-6.2595797E-1,-1.5064967E-2,-4.317915E-2,-3.598558E-1,1.3259058E-1,3.9688212E-1,-5.2915104E-2,6.182693E-1,-3.9046444E-2,-1.8375635E-2,-3.9909277E-2,2.5587944E-2,-3.9085233E-1,5.2992376E-3,5.023254E-2,4.201269E-1,-5.497835E-2,8.1147826E-1,4.1948384E-1,3.395426E-1,-9.530307E-2,-2.0686734E-2,2.1725181E-2,3.29448E-2,-8.349624E-3,2.4708487E-2,1.8188944E-3,5.521379E-2,8.40872E-3,3.877558E-2,-4.1418523E-3,2.439747E-2,-1.8610569E-2,-3.708787E-3,-5.624164E-2],"categories":[],"categories_nodes":[],"categories_segments":[],"categories_sizes":[],"default_left":[0,0,0,0,0,0,0,0,0,0,0,0,0,0,0,0,0,0,0,0,0,0,0,0,0,0,0,0,0,0,0,0,0,0,0,0,0,0,0,0,0,0,0,0,0,0,0],"id":21,"left_children":[1,3,5,7,9,11,13,15,-1,17,19,-1,21,-1,-1,23,25,27,-1,29,31,-1,-1,-1,33,35,-1,37,-1,39,41,43,45,-1,-1,-1,-1,-1,-1,-1,-1,-1,-1,-1,-1,-1,-1],"loss_changes":[8.179953E1,4.981978E1,1.462326E-1,1.0105528E1,3.671501E1,5.41687E-1,6.3317394E-1,1.1369072E1,0E0,1.9299706E1,1.9785463E1,0E0,2.2337341E-1,0E0,0E0,9.07336E0,6.1176586E0,1.6241516E1,0E0,1.5484848E0,1.4191662E1,0E0,0E0,0E0,6.180317E0,5.6434975E0,0E0,1.2694984E1,0E0,4.3103905E0,4.769632E0,9.289716E0,1.2523285E1,0E0,0E0,0E0,0E0,0E0,0E0,0E0,0E0,0E0,0E0,0E0,0E0,0E0,0E0],"parents":[2147483647,0,0,1,1,2,2,3,3,4,4,5,5,6,6,7,7,9,9,10,10,12,12,15,15,16,16,17,17,19,19,20,20,24,24,25,25,27,27,29,29,30,30,31,31,32,32],"right_children":[2,4,6,8,10,12,14,16,-1,18,20,-1,22,-1,-1,24,26,28,-1,30,32,-1,-1,-1,34,36,-1,38,-1,40,42,44,46,-1,-1,-1,-1,-1,-1,-1,-1,-1,-1,-1,-1,-1,-1],"split_conditions":[1E0,1E0,1E0,1E0,1E0,1E0,1E0,1E0,3.3255417E-2,1E0,1E0,-5.0504845E-2,1E0,-1.5064967E-2,-4.317915E-2,1E0,1E0,1E0,-5.2915104E-2,1E0,1E0,-1.8375635E-2,-3.9909277E-2,2.5587944E-2,1E0,1E0,5.023254E-2,1E0,-5.497835E-2,1E0,1E0,1E0,1E0,-2.0686734E-2,2.1725181E-2,3.29448E-2,-8.349624E-3,2.4708487E-2,1.8188944E-3,5.521379E-2,8.40872E-3,3.877558E-2,-4.1418523E-3,2.439747E-2,-1.8610569E-2,-3.708787E-3,-5.624164E-2],"split_indices":[2,22,76,7,37,84,50,9,0,3,17,0,50,0,0,17,69,8,0,90,28,0,0,0,64,63,0,0,0,48,50,76,5,0,0,0,0,0,0,0,0,0,0,0,0,0,0],"split_type":[0,0,0,0,0,0,0,0,0,0,0,0,0,0,0,0,0,0,0,0,0,0,0,0,0,0,0,0,0,0,0,0,0,0,0,0,0,0,0,0,0,0,0,0,0,0,0],"sum_hessian":[1.6540092E3,1.5650857E3,8.892347E1,3.920873E2,1.1729983E3,7.7783875E1,1.1139591E1,3.8159424E2,1.049308E1,4.6100388E2,7.1199445E2,6.7175255E1,1.0608624E1,5.0119133E0,6.127678E0,3.2743506E2,5.4159164E1,4.5263632E2,8.367538E0,4.818059E1,6.638139E2,5.4956756E0,5.1129484E0,1.0711796E1,3.1672327E2,4.813863E1,6.0205374E0,4.464212E2,6.215136E0,2.2869993E1,2.5310596E1,8.522713E1,5.7858673E2,3.0866452E2,8.058762E0,9.453193E0,3.8685436E1,3.7397623E2,7.244498E1,1.5224187E1,7.645807E0,1.4493937E1,1.0816661E1,7.078275E1,1.4444368E1,5.680026E2,1.0584131E1],"tree_param":{"num_deleted":"0","num_feature":"94","num_nodes":"47","size_leaf_vector":"1"}},{"base_weights":[-1.1031811E-2,-9.0880744E-2,3.6968392E-1,-2.269682E-1,2.0127372E-1,-1.0661709E-1,4.4070435E-1,-2.6514366E-1,5.415488E-1,3.088893E-1,-6.7171663E-1,5.952375E-2,-2.589163E-2,4.9291286E-1,-2.3617902E-1,4.0637314E-1,-3.1175435E-1,6.5367794E-1,-1.1440087E-2,3.8042375E-1,-2.7139035E-1,-8.684267E-1,-2.483523E-1,-1.1551467E-1,2.1390323E-2,6.226463E-1,3.2907814E-1,2.584636E-3,-2.9344454E-2,5.3885764E-1,-9.97844E-3,-2.8765038E-1,-6.1186027E-2,4.832467E-1,6.6054314E-2,2.6205474E-1,6.694816E-1,-5.397175E-1,3.585942E-3,-5.2457836E-2,-1.5620444E-3,-2.4600562E-2,-2.1142145E-3,4.5654858E-3,-1.6996136E-2,6.725358E-1,-5.037933E-3,3.875505E-1,-3.343888E-2,3.227278E-2,-1.5509339E-2,-4.508305E-3,-1.9741273E-2,1.5725875E-2,4.061811E-2,1.581248E-2,-2.9747391E-2,4.2148408E-2,2.2338621E-2,-6.7242393E-3,-4.0531125E-2,1.3205754E-2,-7.444008E-3,3.535583E-2,1.5202899E-2,2.4557162E-2,-1.0563669E-2],"categories":[],"categories_nodes":[],"categories_segments":[],"categories_sizes":[],"default_left":[0,0,0,0,0,0,0,0,0,0,0,0,0,0,0,0,0,0,0,0,0,0,0,0,0,0,0,0,0,0,0,0,0,0,0,0,0,0,0,0,0,0,0,0,0,0,0,0,0,0,0,0,0,0,0,0,0,0,0,0,0,0,0,0,0,0,0],"id":22,"left_children":[1,3,5,7,9,11,13,15,17,19,21,23,-1,25,27,29,31,33,-1,35,37,39,41,43,-1,45,47,-1,-1,49,-1,51,-1,53,-1,55,57,59,61,-1,-1,-1,-1,-1,-1,63,-1,65,-1,-1,-1,-1,-1,-1,-1,-1,-1,-1,-1,-1,-1,-1,-1,-1,-1,-1,-1],"loss_changes":[5.0372276E1,5.4499374E1,9.764915E0,2.7570465E1,4.1146626E1,2.632639E0,8.958225E0,2.8023415E1,3.9993439E0,1.6235233E1,3.7932396E0,1.8557566E0,0E0,4.7391243E0,1.9074008E0,4.786374E0,1.7980797E1,3.816496E0,0E0,1.1676617E1,3.1919258E0,4.879509E0,8.1628E-1,9.491383E-1,0E0,4.7123184E0,6.3806286E0,0E0,0E0,4.5532465E0,0E0,1.718927E1,0E0,1.5645332E0,0E0,1.1678696E1,3.486866E0,2.293879E0,9.269478E-1,0E0,0E0,0E0,0E0,0E0,0E0,1.320694E0,0E0,6.291025E0,0E0,0E0,0E0,0E0,0E0,0E0,0E0,0E0,0E0,0E0,0E0,0E0,0E0,0E0,0E0,0E0,0E0,0E0,0E0],"parents":[2147483647,0,0,1,1,2,2,3,3,4,4,5,5,6,6,7,7,8,8,9,9,10,10,11,11,13,13,14,14,15,15,16,16,17,17,19,19,20,20,21,21,22,22,23,23,25,25,26,26,29,29,31,31,33,33,35,35,36,36,37,37,38,38,45,45,47,47],"right_children":[2,4,6,8,10,12,14,16,18,20,22,24,-1,26,28,30,32,34,-1,36,38,40,42,44,-1,46,48,-1,-1,50,-1,52,-1,54,-1,56,58,60,62,-1,-1,-1,-1,-1,-1,64,-1,66,-1,-1,-1,-1,-1,-1,-1,-1,-1,-1,-1,-1,-1,-1,-1,-1,-1,-1,-1],"split_conditions":[1E0,1E0,1E0,1E0,1E0,1E0,1E0,1E0,1E0,1E0,1E0,1E0,-2.589163E-2,1E0,1E0,1E0,1E0,1E0,-1.1440087E-2,1E0,1E0,1E0,1E0,1E0,2.1390323E-2,1E0,1E0,2.584636E-3,-2.9344454E-2,1E0,-9.97844E-3,1E0,-6.1186027E-2,1E0,6.6054314E-2,1E0,1E0,1E0,1E0,-5.2457836E-2,-1.5620444E-3,-2.4600562E-2,-2.1142145E-3,4.5654858E-3,-1.6996136E-2,1E0,-5.037933E-3,1E0,-3.343888E-2,3.227278E-2,-1.5509339E-2,-4.508305E-3,-1.9741273E-2,1.5725875E-2,4.061811E-2,1.581248E-2,-2.9747391E-2,4.2148408E-2,2.2338621E-2,-6.7242393E-3,-4.0531125E-2,1.3205754E-2,-7.444008E-3,3.535583E-2,1.5202899E-2,2.4557162E-2,-1.0563669E-2],"split_indices":[9,10,91,13,23,48,21,28,66,65,37,73,0,37,73,65,3,48,0,41,81,46,50,81,0,65,82,0,0,92,0,37,0,64,0,21,81,50,37,0,0,0,0,0,0,75,0,78,0,0,0,0,0,0,0,0,0,0,0,0,0,0,0,0,0,0,0],"split_type":[0,0,0,0,0,0,0,0,0,0,0,0,0,0,0,0,0,0,0,0,0,0,0,0,0,0,0,0,0,0,0,0,0,0,0,0,0,0,0,0,0,0,0,0,0,0,0,0,0,0,0,0,0,0,0,0,0,0,0,0,0,0,0,0,0,0,0],"sum_hessian":[1.6548915E3,1.3686093E3,2.8628226E2,9.3384247E2,4.347668E2,3.708295E1,2.4919931E2,8.902738E2,4.356864E1,3.8762903E2,4.7137768E1,2.7021053E1,1.0061899E1,2.3160707E2,1.7592232E1,5.7283E1,8.3299084E2,3.816496E1,5.403684E0,3.4539462E2,4.2234406E1,3.1466206E1,1.5671564E1,1.8781075E1,8.239979E0,1.2769257E2,1.039145E2,1.0129932E1,7.4623E0,4.7096443E1,1.0186558E1,8.128227E2,2.0168118E1,3.1774897E1,6.3900604E0,2.4640039E2,9.899423E1,2.0888361E1,2.1346043E1,2.5671171E1,5.795033E0,6.5450044E0,9.12656E0,1.0082086E1,8.698989E0,1.1952021E2,8.17237E0,9.8740135E1,5.174358E0,4.205607E1,5.0403733E0,2.8658792E2,5.262348E2,2.2298609E1,9.476289E0,2.323388E2,1.4061588E1,5.4081005E1,4.4913227E1,8.968812E0,1.191955E1,7.610013E0,1.3736031E1,1.0842569E2,1.1094514E1,8.433119E1,1.4408941E1],"tree_param":{"num_deleted":"0","num_feature":"94","num_nodes":"67","size_leaf_vector":"1"}},{"base_weights":[4.517425E-3,4.9200688E-2,-8.0313325E-1,9.280241E-2,-5.38687E-1,-6.440661E-1,-9.881555E-1,3.2420576E-1,-5.6329384E-2,-7.443527E-1,-2.2761083E-1,-4.790371E-1,-5.0206102E-2,-2.0158997E-2,-5.653846E-2,3.5114995E-1,-5.6078374E-2,-2.9696304E-1,3.403427E-2,-8.372E-1,-9.107318E-3,7.5998336E-2,-3.6439493E-1,-6.998159E-3,-6.028295E-1,3.724899E-2,4.438674E-1,-3.744861E-1,2.4384935E-1,-8.376508E-1,7.429676E-2,-6.002134E-1,-5.353262E-2,-1.0921598E-2,2.6037797E-2,1.5571651E-2,-6.299698E-1,-4.3131047E-1,-4.1012604E-2,1.1174608E-2,-2.1444423E-2,2.0809658E-2,4.5161955E-2,-2.0188218E-2,7.820386E-3,1.9837467E-2,-2.2593098E-2,-2.9324098E-2,-6.373972E-2,4.9069505E-3,-6.4040355E-2,-3.986484E-2,2.041469E-3,-4.396475E-2,-2.3896042E-2,-1.3757524E-2,-3.2332342E-2],"categories":[],"categories_nodes":[],"categories_segments":[],"categories_sizes":[],"default_left":[0,0,0,0,0,0,0,0,0,0,0,0,0,0,0,0,0,0,0,0,0,0,0,0,0,0,0,0,0,0,0,0,0,0,0,0,0,0,0,0,0,0,0,0,0,0,0,0,0,0,0,0,0,0,0,0,0],"id":23,"left_children":[1,3,5,7,9,11,13,15,17,19,21,23,-1,-1,-1,25,-1,27,29,31,-1,33,35,-1,37,39,41,43,45,47,49,51,-1,-1,-1,-1,53,55,-1,-1,-1,-1,-1,-1,-1,-1,-1,-1,-1,-1,-1,-1,-1,-1,-1,-1,-1],"loss_changes":[5.973506E1,4.0251865E1,1.91745E0,5.0434464E1,6.7680836E0,2.4621868E0,2.7345543E0,2.2702995E1,1.9346325E1,3.2319908E0,1.879827E0,1.4215603E0,0E0,0E0,0E0,1.6368248E1,0E0,1.0273764E1,2.2782625E1,2.4207077E0,0E0,2.0360408E0,5.745642E0,0E0,6.1504745E-1,1.1334988E1,5.147911E0,3.3710766E0,3.48275E0,2.3994675E0,2.0147783E1,3.7914686E0,0E0,0E0,0E0,0E0,4.3377495E-1,3.8135004E-1,0E0,0E0,0E0,0E0,0E0,0E0,0E0,0E0,0E0,0E0,0E0,0E0,0E0,0E0,0E0,0E0,0E0,0E0,0E0],"parents":[2147483647,0,0,1,1,2,2,3,3,4,4,5,5,6,6,7,7,8,8,9,9,10,10,11,11,15,15,17,17,18,18,19,19,21,21,22,22,24,24,25,25,26,26,27,27,28,28,29,29,30,30,31,31,36,36,37,37],"right_children":[2,4,6,8,10,12,14,16,18,20,22,24,-1,-1,-1,26,-1,28,30,32,-1,34,36,-1,38,40,42,44,46,48,50,52,-1,-1,-1,-1,54,56,-1,-1,-1,-1,-1,-1,-1,-1,-1,-1,-1,-1,-1,-1,-1,-1,-1,-1,-1],"split_conditions":[1E0,1E0,1E0,1E0,1E0,1E0,1E0,1E0,1E0,1E0,1E0,1E0,-5.0206102E-2,-2.0158997E-2,-5.653846E-2,1E0,-5.6078374E-2,1E0,1E0,1E0,-9.107318E-3,1E0,1E0,-6.998159E-3,1E0,1E0,1E0,1E0,1E0,1E0,1E0,1E0,-5.353262E-2,-1.0921598E-2,2.6037797E-2,1.5571651E-2,1E0,1E0,-4.1012604E-2,1.1174608E-2,-2.1444423E-2,2.0809658E-2,4.5161955E-2,-2.0188218E-2,7.820386E-3,1.9837467E-2,-2.2593098E-2,-2.9324098E-2,-6.373972E-2,4.9069505E-3,-6.4040355E-2,-3.986484E-2,2.041469E-3,-4.396475E-2,-2.3896042E-2,-1.3757524E-2,-3.2332342E-2],"split_indices":[2,23,61,37,37,56,37,3,51,71,90,90,0,0,0,51,0,10,34,10,0,73,63,0,73,71,18,80,93,35,3,69,0,0,0,0,44,58,0,0,0,0,0,0,0,0,0,0,0,0,0,0,0,0,0,0,0],"split_type":[0,0,0,0,0,0,0,0,0,0,0,0,0,0,0,0,0,0,0,0,0,0,0,0,0,0,0,0,0,0,0,0,0,0,0,0,0,0,0,0,0,0,0,0,0,0,0,0,0,0,0,0,0,0,0,0,0],"sum_hessian":[1.6531447E3,1.5673691E3,8.577559E1,1.4599327E3,1.0743635E2,4.8532375E1,3.7243214E1,5.7168787E2,8.882449E2,6.383769E1,4.359866E1,3.4877148E1,1.3655227E1,8.050125E0,2.9193089E1,5.619718E2,9.71608E0,2.418704E2,6.463745E2,5.4369534E1,9.468155E0,1.3679567E1,2.9919092E1,9.897633E0,2.4979515E1,1.2846088E2,4.3351093E2,2.1181519E2,3.0055214E1,2.7663057E1,6.187114E2,2.875264E1,2.5616894E1,8.53696E0,5.1426077E0,8.391625E0,2.1527466E1,1.5631765E1,9.34775E0,9.215949E1,3.6301376E1,4.1067627E2,2.2834635E1,2.0097128E2,1.0843906E1,2.499226E1,5.0629535E0,1.9055813E1,8.607244E0,6.089253E2,9.786104E0,2.1805092E1,6.947548E0,6.3431644E0,1.5184302E1,1.0381189E1,5.250576E0],"tree_param":{"num_deleted":"0","num_feature":"94","num_nodes":"57","size_leaf_vector":"1"}},{"base_weights":[-8.437974E-3,6.3546747E-1,-5.565901E-2,6.9354403E-1,-7.274476E-3,-1.2069331E-1,2.6054406E-1,5.0665885E-1,8.4670943E-1,-2.3230171E-1,1.4210923E-1,-1.1352713E-1,3.509994E-1,6.387984E-1,-1.31378E-3,1.0055702E0,6.0312575E-1,-2.6671648E-1,4.246677E-1,2.485373E-1,-5.9962213E-1,-2.7513695E-1,2.6306844E-1,3.9278695E-1,-1.5209906E-1,8.9263994E-1,2.980203E-1,5.4695692E-2,2.7723005E-2,4.4073842E-2,4.3417805E-1,2.8652945E-1,-3.043422E-1,5.40603E-1,-1.052668E-2,3.054932E-1,-5.181341E-1,-7.243444E-1,-7.436047E-4,1.6620252E-2,-4.514307E-1,6.8209716E-3,1.772568E-2,4.4676307E-1,2.9845877E-2,-2.1505266E-2,1.2122803E-2,1.9783821E-2,5.2331515E-2,3.1131852E-2,-8.083463E-3,2.702463E-2,1.4895464E-2,2.2160923E-2,-1.6992748E-2,-1.4055341E-2,-6.085288E-2,3.197879E-2,1.0267415E-3,9.733722E-3,2.9559625E-2,-6.4029195E-3,-3.7633784E-2,1.6846852E-2,-4.5225378E-2,-1.4661955E-2,-3.6992807E-2,1.1208861E-2,2.7341668E-2,1.0888397E-2,-1.8826488E-2],"categories":[],"categories_nodes":[],"categories_segments":[],"categories_sizes":[],"default_left":[0,0,0,0,0,0,0,0,0,0,0,0,0,0,0,0,0,0,0,0,0,0,0,0,0,0,0,0,0,0,0,0,0,0,0,0,0,0,0,0,0,0,0,0,0,0,0,0,0,0,0,0,0,0,0,0,0,0,0,0,0,0,0,0,0,0,0,0,0,0,0],"id":24,"left_children":[1,3,5,7,-1,9,11,13,15,17,19,21,23,25,-1,27,29,31,33,35,37,39,41,43,45,47,49,-1,-1,-1,51,53,55,57,-1,59,61,63,-1,-1,65,-1,-1,67,69,-1,-1,-1,-1,-1,-1,-1,-1,-1,-1,-1,-1,-1,-1,-1,-1,-1,-1,-1,-1,-1,-1,-1,-1,-1,-1],"loss_changes":[4.9887283E1,5.1853294E0,3.1462482E1,2.5627136E0,0E0,3.723629E1,8.872936E0,3.5073118E0,1.5585442E0,2.0251022E1,3.0045364E1,3.2121565E0,4.484329E0,3.173149E0,0E0,6.8333435E-1,7.734051E-1,1.7717709E1,3.4071512E0,1.4651293E1,3.4764385E0,4.0687156E0,1.3696444E-1,3.7989101E0,1.9537715E0,1.291214E0,2.8573456E0,0E0,0E0,0E0,8.91695E-2,5.49456E0,1.6486092E1,1.947897E0,0E0,9.686459E0,2.0373912E0,7.8359528E0,0E0,0E0,1.0962691E0,0E0,0E0,3.649212E0,2.0878088E0,0E0,0E0,0E0,0E0,0E0,0E0,0E0,0E0,0E0,0E0,0E0,0E0,0E0,0E0,0E0,0E0,0E0,0E0,0E0,0E0,0E0,0E0,0E0,0E0,0E0,0E0],"parents":[2147483647,0,0,1,1,2,2,3,3,5,5,6,6,7,7,8,8,9,9,10,10,11,11,12,12,13,13,15,15,16,16,17,17,18,18,19,19,20,20,21,21,22,22,23,23,24,24,25,25,26,26,30,30,31,31,32,32,33,33,35,35,36,36,37,37,40,40,43,43,44,44],"right_children":[2,4,6,8,-1,10,12,14,16,18,20,22,24,26,-1,28,30,32,34,36,38,40,42,44,46,48,50,-1,-1,-1,52,54,56,58,-1,60,62,64,-1,-1,66,-1,-1,68,70,-1,-1,-1,-1,-1,-1,-1,-1,-1,-1,-1,-1,-1,-1,-1,-1,-1,-1,-1,-1,-1,-1,-1,-1,-1,-1],"split_conditions":[1E0,1E0,1E0,1E0,-7.274476E-3,1E0,1E0,1E0,1E0,1E0,1E0,1E0,1E0,1E0,-1.31378E-3,1E0,1E0,1E0,1E0,1E0,1E0,1E0,1E0,1E0,1E0,1E0,1E0,5.4695692E-2,2.7723005E-2,4.4073842E-2,1E0,1E0,1E0,1E0,-1.052668E-2,1E0,1E0,1E0,-7.436047E-4,1.6620252E-2,1E0,6.8209716E-3,1.772568E-2,1E0,1E0,-2.1505266E-2,1.2122803E-2,1.9783821E-2,5.2331515E-2,3.1131852E-2,-8.083463E-3,2.702463E-2,1.4895464E-2,2.2160923E-2,-1.6992748E-2,-1.4055341E-2,-6.085288E-2,3.197879E-2,1.0267415E-3,9.733722E-3,2.9559625E-2,-6.4029195E-3,-3.7633784E-2,1.6846852E-2,-4.5225378E-2,-1.4661955E-2,-3.6992807E-2,1.1208861E-2,2.7341668E-2,1.0888397E-2,-1.8826488E-2],"split_indices":[17,55,9,10,0,10,22,48,50,13,23,24,75,37,0,61,85,28,55,21,89,63,29,61,41,85,81,0,0,0,81,65,3,46,0,41,50,63,0,0,41,0,0,87,49,0,0,0,0,0,0,0,0,0,0,0,0,0,0,0,0,0,0,0,0,0,0,0,0,0,0],"split_type":[0,0,0,0,0,0,0,0,0,0,0,0,0,0,0,0,0,0,0,0,0,0,0,0,0,0,0,0,0,0,0,0,0,0,0,0,0,0,0,0,0,0,0,0,0,0,0,0,0,0,0,0,0,0,0,0,0,0,0,0,0,0,0,0,0,0,0,0,0,0,0],"sum_hessian":[1.6385482E3,1.1110224E2,1.527446E3,1.0351611E2,7.5861335E0,1.2673958E3,2.6005026E2,4.8566055E1,5.4950054E1,8.896784E2,3.7771735E2,5.0588844E1,2.0946141E2,3.8757584E1,9.808473E0,3.1365702E1,2.3584352E1,8.459577E2,4.3720745E1,3.309024E2,4.681494E1,3.5586773E1,1.5002071E1,1.9360016E2,1.5861245E1,2.1283985E1,1.7473598E1,2.503751E1,6.3281918E0,7.3150053E0,1.6269348E1,5.344793E1,7.9250977E2,3.709854E1,6.622203E0,3.085796E2,2.2322794E1,3.838831E1,8.42663E0,7.804715E0,2.7782059E1,7.335048E0,7.6670237E0,1.683347E2,2.5265461E1,9.25207E0,6.6091747E0,5.879365E0,1.540462E1,1.0033686E1,7.439913E0,7.472814E0,8.796533E0,4.298718E1,1.0460752E1,7.7411084E2,1.83989E1,3.0974144E1,6.1243978E0,2.2354933E2,8.5030266E1,8.962645E0,1.336015E1,5.4447722E0,3.294354E1,1.9244041E1,8.538018E0,5.321315E1,1.1512155E2,1.7593666E1,7.671794E0],"tree_param":{"num_deleted":"0","num_feature":"94","num_nodes":"71","size_leaf_vector":"1"}},{"base_weights":[-3.3847704E-3,6.606467E-1,-5.265759E-2,7.1208155E-1,-2.7191946E-3,-1.1214945E-2,-7.8154963E-1,5.2458733E-1,8.679158E-1,2.8752688E-2,-5.342507E-1,-8.1991166E-1,-9.103794E-3,4.7175817E-2,4.050671E-1,1.022713E0,5.93989E-1,2.0932204E-1,-8.221809E-2,-6.569834E-1,-2.0828587E-1,-8.706653E-1,-2.0349272E-2,2.3842926E-1,5.492137E-2,5.40927E-2,3.165747E-2,4.1602813E-2,1.2575621E-2,2.340241E-1,-5.3644437E-2,-2.621238E-2,-4.7845683E-1,-7.332916E-1,-8.719445E-3,-2.5449965E-2,3.9603204E-2,-4.723292E-2,-2.147047E-2,3.7560567E-2,1.748375E-3,1.2960302E-2,-5.1538616E-2,-3.8083387E-4,-6.327068E-2,-3.5490133E-2,-1.2979584E-2,-1.8179579E-2,-4.3111872E-2,2.3505962E-2,-1.26412725E-2],"categories":[],"categories_nodes":[],"categories_segments":[],"categories_sizes":[],"default_left":[0,0,0,0,0,0,0,0,0,0,0,0,0,0,0,0,0,0,0,0,0,0,0,0,0,0,0,0,0,0,0,0,0,0,0,0,0,0,0,0,0,0,0,0,0,0,0,0,0,0,0],"id":25,"left_children":[1,3,5,7,-1,9,11,13,15,17,19,21,-1,-1,23,25,27,29,31,33,35,37,-1,39,-1,-1,-1,-1,-1,41,-1,43,45,47,-1,-1,49,-1,-1,-1,-1,-1,-1,-1,-1,-1,-1,-1,-1,-1,-1],"loss_changes":[5.3707073E1,4.2088776E0,4.614869E1,2.6374474E0,0E0,3.0260763E1,1.7408524E0,2.150013E0,1.7788696E0,2.6969713E1,3.9743176E0,1.2585869E0,0E0,0E0,4.486719E0,1.1154938E-1,1.6419544E0,1.6476229E1,1.8491028E1,2.6042137E0,2.2246227E0,1.8034515E0,0E0,3.564085E0,0E0,0E0,0E0,0E0,0E0,1.6300644E1,0E0,1.6849401E1,5.0411434E0,2.7254448E0,0E0,0E0,2.2764497E0,0E0,0E0,0E0,0E0,0E0,0E0,0E0,0E0,0E0,0E0,0E0,0E0,0E0,0E0],"parents":[2147483647,0,0,1,1,2,2,3,3,5,5,6,6,7,7,8,8,9,9,10,10,11,11,14,14,15,15,16,16,17,17,18,18,19,19,20,20,21,21,23,23,29,29,31,31,32,32,33,33,36,36],"right_children":[2,4,6,8,-1,10,12,14,16,18,20,22,-1,-1,24,26,28,30,32,34,36,38,-1,40,-1,-1,-1,-1,-1,42,-1,44,46,48,-1,-1,50,-1,-1,-1,-1,-1,-1,-1,-1,-1,-1,-1,-1,-1,-1],"split_conditions":[1E0,1E0,1E0,1E0,-2.7191946E-3,1E0,1E0,1E0,1E0,1E0,1E0,1E0,-9.103794E-3,4.7175817E-2,1E0,1E0,1E0,1E0,1E0,1E0,1E0,1E0,-2.0349272E-2,1E0,5.492137E-2,5.40927E-2,3.165747E-2,4.1602813E-2,1.2575621E-2,1E0,-5.3644437E-2,1E0,1E0,1E0,-8.719445E-3,-2.5449965E-2,1E0,-4.723292E-2,-2.147047E-2,3.7560567E-2,1.748375E-3,1.2960302E-2,-5.1538616E-2,-3.8083387E-4,-6.327068E-2,-3.5490133E-2,-1.2979584E-2,-1.8179579E-2,-4.3111872E-2,2.3505962E-2,-1.26412725E-2],"split_indices":[17,55,2,10,0,23,67,51,50,37,86,76,0,0,69,61,81,3,21,62,37,84,0,28,0,0,0,0,0,8,0,35,44,44,0,0,90,0,0,0,0,0,0,0,0,0,0,0,0,0,0],"split_type":[0,0,0,0,0,0,0,0,0,0,0,0,0,0,0,0,0,0,0,0,0,0,0,0,0,0,0,0,0,0,0,0,0,0,0,0,0,0,0,0,0,0,0,0,0,0,0,0,0,0,0],"sum_hessian":[1.6394163E3,1.1238863E2,1.5270276E3,1.04850464E2,7.5381684E0,1.4458369E3,8.119063E1,4.9572693E1,5.5277767E1,1.3440748E3,1.0176209E2,7.59619E1,5.228731E0,9.473398E0,4.0099297E1,3.357237E1,2.17054E1,5.1126645E2,8.328084E2,7.318926E1,2.8572832E1,6.6660034E1,9.301858E0,3.341292E1,6.6863737E0,2.760453E1,5.9678373E0,1.196122E1,9.744181E0,5.02405E2,8.861457E0,7.30608E2,1.0220043E2,6.2748013E1,1.0441248E1,1.2434836E1,1.6137997E1,5.6110218E1,1.0549817E1,8.72678E0,2.468614E1,4.9337698E2,9.028012E0,7.2079767E2,9.810288E0,4.8593163E1,5.3607273E1,1.7213877E1,4.5534138E1,6.281977E0,9.856019E0],"tree_param":{"num_deleted":"0","num_feature":"94","num_nodes":"51","size_leaf_vector":"1"}},{"base_weights":[1.2200038E-3,6.2524635E-1,-4.420691E-2,6.976622E-1,3.1293717E-1,-1.09569795E-1,2.648844E-1,6.1847544E-1,5.865831E-2,5.0329316E-1,-1.0907178E-2,-1.4382523E-1,6.789833E-1,3.1467047E-1,-2.8618225E-1,6.795668E-1,8.4797386E-4,3.226813E-2,1.3418878E-2,-2.6238072E-1,1.2595688E-1,3.4435198E-1,4.7447104E-2,4.2112163E-1,9.1361456E-2,-3.9381993E-1,-3.5586208E-3,4.574431E-1,8.504551E-1,-3.0629644E-1,5.012353E-1,2.2874568E-1,-6.1791664E-1,6.7086965E-1,4.0827796E-2,3.492785E-1,8.018332E-1,-1.1880944E-2,3.1401023E-2,-2.446874E-2,-1.2558584E-2,-6.1711185E-3,3.3693984E-2,4.866484E-2,3.000353E-2,-2.197526E-2,-7.3461146E-3,2.9909229E-2,-9.56371E-3,1.5266242E-2,-1.5882425E-2,-3.7647523E-2,3.6276577E-3,4.1487213E-2,1.9983945E-2,-9.662985E-3,1.6566606E-2,-7.511251E-4,2.1653855E-2,2.9632343E-2,5.690142E-2,3.6354994E-3,-2.309516E-2],"categories":[],"categories_nodes":[],"categories_segments":[],"categories_sizes":[],"default_left":[0,0,0,0,0,0,0,0,0,0,0,0,0,0,0,0,0,0,0,0,0,0,0,0,0,0,0,0,0,0,0,0,0,0,0,0,0,0,0,0,0,0,0,0,0,0,0,0,0,0,0,0,0,0,0,0,0,0,0,0,0,0,0],"id":26,"left_children":[1,3,5,7,9,11,13,15,-1,17,-1,19,21,23,25,27,-1,-1,-1,29,31,33,-1,35,37,39,-1,41,43,45,47,49,51,53,55,57,59,61,-1,-1,-1,-1,-1,-1,-1,-1,-1,-1,-1,-1,-1,-1,-1,-1,-1,-1,-1,-1,-1,-1,-1,-1,-1],"loss_changes":[4.636355E1,2.2916641E0,3.083028E1,2.636097E0,2.404966E0,3.4110504E1,7.3992844E0,2.8786087E0,0E0,3.9467192E-1,0E0,3.8656075E1,4.4246445E0,5.7812004E0,4.949751E-1,2.3201141E0,0E0,0E0,0E0,2.8297035E1,2.8381292E1,2.4556942E0,0E0,4.2468796E0,4.456973E0,7.934928E-2,0E0,4.256786E0,6.2085533E-1,1.6796646E1,3.2040596E0,1.3705172E1,4.2604485E0,1.8562698E-1,1.019441E0,4.3111496E0,1.1191063E0,2.634834E0,0E0,0E0,0E0,0E0,0E0,0E0,0E0,0E0,0E0,0E0,0E0,0E0,0E0,0E0,0E0,0E0,0E0,0E0,0E0,0E0,0E0,0E0,0E0,0E0,0E0],"parents":[2147483647,0,0,1,1,2,2,3,3,4,4,5,5,6,6,7,7,9,9,11,11,12,12,13,13,14,14,15,15,19,19,20,20,21,21,23,23,24,24,25,25,27,27,28,28,29,29,30,30,31,31,32,32,33,33,34,34,35,35,36,36,37,37],"right_children":[2,4,6,8,10,12,14,16,-1,18,-1,20,22,24,26,28,-1,-1,-1,30,32,34,-1,36,38,40,-1,42,44,46,48,50,52,54,56,58,60,62,-1,-1,-1,-1,-1,-1,-1,-1,-1,-1,-1,-1,-1,-1,-1,-1,-1,-1,-1,-1,-1,-1,-1,-1,-1],"split_conditions":[1E0,1E0,1E0,1E0,1E0,1E0,1E0,1E0,5.865831E-2,1E0,-1.0907178E-2,1E0,1E0,1E0,1E0,1E0,8.4797386E-4,3.226813E-2,1.3418878E-2,1E0,1E0,1E0,4.7447104E-2,1E0,1E0,1E0,-3.5586208E-3,1E0,1E0,1E0,1E0,1E0,1E0,1E0,1E0,1E0,1E0,1E0,3.1401023E-2,-2.446874E-2,-1.2558584E-2,-6.1711185E-3,3.3693984E-2,4.866484E-2,3.000353E-2,-2.197526E-2,-7.3461146E-3,2.9909229E-2,-9.56371E-3,1.5266242E-2,-1.5882425E-2,-3.7647523E-2,3.6276577E-3,4.1487213E-2,1.9983945E-2,-9.662985E-3,1.6566606E-2,-7.511251E-4,2.1653855E-2,2.9632343E-2,5.690142E-2,3.6354994E-3,-2.309516E-2],"split_indices":[17,61,9,45,86,7,75,55,0,37,0,10,81,86,88,10,0,0,0,13,23,37,0,69,76,89,0,85,50,0,66,65,71,85,89,22,89,66,0,0,0,0,0,0,0,0,0,0,0,0,0,0,0,0,0,0,0,0,0,0,0,0,0],"split_type":[0,0,0,0,0,0,0,0,0,0,0,0,0,0,0,0,0,0,0,0,0,0,0,0,0,0,0,0,0,0,0,0,0,0,0,0,0,0,0,0,0,0,0,0,0,0,0,0,0,0,0,0,0,0,0,0,0,0,0,0,0,0,0],"sum_hessian":[1.6335626E3,1.09982124E2,1.5235804E3,8.827883E1,2.1703293E1,1.2581647E3,2.6541586E2,7.764852E1,1.0630307E1,1.6015247E1,5.6880455E0,1.2065679E3,5.159677E1,2.4381721E2,2.159865E1,7.037165E1,7.2768693E0,8.89103E0,7.124217E0,8.3823413E2,3.683337E2,2.4054834E1,2.7541937E1,1.6450975E2,7.9307465E1,1.3838979E1,7.759671E0,3.2197548E1,3.8174107E1,7.932151E2,4.5019096E1,3.2422467E2,4.4109028E1,1.10054245E1,1.3049409E1,1.4000685E2,2.4502905E1,6.7332E1,1.1975462E1,6.831897E0,7.0070825E0,8.857047E0,2.33405E1,2.3672758E1,1.45013485E1,4.3111832E2,3.6209674E2,3.961002E1,5.4090767E0,2.8475623E2,3.9468445E1,3.68181E1,7.2909307E0,5.6410403E0,5.364384E0,7.4117713E0,5.637638E0,2.6336006E1,1.13670845E2,1.6807682E1,7.6952224E0,5.738394E1,9.94806E0],"tree_param":{"num_deleted":"0","num_feature":"94","num_nodes":"63","size_leaf_vector":"1"}},{"base_weights":[7.812669E-3,4.8245758E-2,-7.91302E-1,6.007116E-1,5.7326695E-3,-8.3809316E-1,-1.9731041E-2,4.5367917E-1,8.5069525E-1,-2.094229E-1,8.20575E-2,-9.1958845E-1,-3.8016307E-1,3.826816E-1,5.7326403E-2,9.4276416E-1,1.1810661E-2,-2.8413895E-1,1.3111797E-1,9.974804E-2,-5.577087E-2,-4.9490098E-2,-6.3073105E-1,-1.1008808E-2,-2.4335504E-2,-1.8247051E-2,4.9270242E-1,5.682335E-2,6.896625E-1,-2.0390563E-1,-6.454013E-1,-1.811382E-2,2.4551424E-1,-1.3606702E-1,1.8140656E-1,-2.1466369E-2,-3.947158E-2,2.8071273E-2,8.164985E-3,4.2372104E-2,2.3227453E-2,2.0790442E-3,-1.4939507E-2,-1.8907076E-2,-4.913663E-2,2.108507E-2,-2.6188062E-3,-3.85497E-3,-2.3670068E-2,1.01787625E-2,-5.418026E-2],"categories":[],"categories_nodes":[],"categories_segments":[],"categories_sizes":[],"default_left":[0,0,0,0,0,0,0,0,0,0,0,0,0,0,0,0,0,0,0,0,0,0,0,0,0,0,0,0,0,0,0,0,0,0,0,0,0,0,0,0,0,0,0,0,0,0,0,0,0,0,0],"id":27,"left_children":[1,3,5,7,9,11,-1,13,15,17,19,21,23,25,-1,27,-1,29,31,33,-1,-1,35,-1,-1,-1,37,-1,39,41,43,-1,45,47,49,-1,-1,-1,-1,-1,-1,-1,-1,-1,-1,-1,-1,-1,-1,-1,-1],